//Numpy array shape [784, 50]
//Min -0.595534145832
//Max 0.340194612741
//Number of zeros 0

#ifndef W2_H_
#define W2_H_

#ifndef __SYNTHESIS__
fc1_weight_t w2[39200];
#else
fc1_weight_t w2[39200] = {-0.00024223, -0.00011177, -0.00012425, 0.00017390, 0.00005528, -0.00007010, -0.00005581, 0.00010309, 0.00000438, 0.00011819, -0.00018436, -0.00003631, 0.00010239, -0.00009563, 0.00028353, -0.00029032, 0.00006669, 0.00005139, -0.00003153, 0.00020388, -0.00005273, 0.00032162, 0.00014753, 0.00000472, 0.00026880, 0.00020312, -0.00013027, 0.00021508, 0.00005472, 0.00010664, -0.00002686, 0.00000800, -0.00011594, 0.00009451, 0.00000339, -0.01875719, -0.00000640, 0.00001086, 0.00004308, 0.00037049, -0.00896043, -0.00238280, 0.00014876, 0.00027550, 0.00110622, -0.00013543, 0.00011157, -0.00001093, -0.00000582, 0.00009841, -0.00003373, 0.00021185, 0.00021097, 0.00013286, 0.00061742, -0.00017679, 0.00010268, -0.00003909, 0.00025451, -0.00023415, 0.00011103, 0.00014142, 0.00000565, -0.00031863, -0.00170551, -0.00495511, -0.00020038, 0.01040855, -0.00173125, -0.11595773, -0.01346573, -0.02036804, 0.00040090, 0.00068971, 0.00009556, 0.00020958, 0.00022856, 0.00007847, 0.00007803, -0.00005890, -0.00006351, 0.00005561, 0.00037805, -0.00014580, 0.00013007, 0.00008153, -0.00009733, -0.00000210, 0.00000070, -0.00104367, -0.00272611, 0.00434494, -0.00116078, 0.02157662, 0.00488633, 0.00449525, 0.00115761, -0.00667258, -0.03639670, -0.08622298, -0.13180496, 0.00697740, 0.00274616, -0.00169618, -0.00081426, 0.00021214, 0.00014114, -0.01424015, -0.01067572, -0.01641454, -0.00017567, 0.00005879, -0.00004834, 0.00034177, -0.00005409, 0.00004209, 0.00011995, -0.00018866, 0.00574640, 0.00300187, 0.00593222, 0.01935612, 0.00983070, 0.04520802, 0.04570182, 0.00157505, -0.01139170, -0.02659866, -0.00144688, -0.14582004, -0.06148003, -0.03537482, -0.01521718, -0.01626319, -0.01329378, -0.01157790, -0.01582617, -0.01840619, -0.00001133, -0.00001241, -0.00015034, 0.00000981, -0.00014054, 0.01338970, 0.03212430, 0.02644149, 0.00534824, 0.00448212, 0.08635899, 0.08756801, 0.04695034, 0.04906946, 0.00417369, -0.00043961, -0.00103375, -0.00144643, -0.00640396, -0.00833469, -0.11537508, -0.18936107, -0.01613840, -0.08900266, -0.01644432, -0.01182327, -0.01629027, -0.01786228, 0.00000423, 0.00001968, 0.00010944, -0.00000874, -0.01191000, -0.00163232, 0.00546472, -0.00161032, 0.07523219, 0.00690479, 0.02216726, 0.07753868, 0.10539085, 0.00144824, 0.01153428, 0.00858900, 0.00188644, 0.00016395, 0.00065218, -0.00535524, -0.00819341, -0.00964984, -0.01102356, -0.01208912, -0.00517657, -0.00507754, -0.00314693, -0.00558312, 0.00005636, 0.00002596, -0.00001164, -0.00001684, -0.00005293, 0.01554563, 0.02614367, -0.00152185, 0.06429236, 0.01305199, 0.02535069, 0.01603122, 0.02922208, 0.00651964, 0.06552329, 0.19165660, 0.00186968, 0.00446170, 0.00248983, -0.00097899, -0.00494916, -0.00650994, -0.00479603, -0.00816586, -0.00718329, -0.00503680, 0.00694970, 0.00685492, -0.00044455, -0.00000295, 0.00003820, 0.00001881, -0.00669810, 0.00218872, 0.00192015, -0.00067714, -0.00025604, -0.00292898, 0.00066254, 0.00745931, 0.02532974, 0.01765504, 0.02544236, 0.11264715, 0.10988130, 0.01073731, 0.01085020, 0.03824002, 0.00074743, -0.00125172, -0.04535806, -0.00843381, -0.00602040, -0.00245050, 0.00553518, -0.00212862, -0.00043366, -0.00005897, -0.00009507, 0.00031764, 0.00001476, 0.00193377, 0.00838714, -0.00064381, 0.00073195, 0.00172587, 0.00404555, 0.00523714, 0.00367630, 0.00008022, 0.09450983, -0.00044622, 0.05065555, 0.15713109, 0.00595061, 0.00990383, 0.00572220, 0.00028183, -0.00537774, -0.00669107, -0.00445730, -0.00089489, -0.00327685, -0.01950702, -0.02391757, 0.00001594, 0.00003970, 0.00018134, 0.00013006, 0.00075579, 0.00936655, 0.00149290, 0.00086335, -0.00069374, 0.00021805, -0.00052903, 0.00215124, 0.00069740, 0.03070702, 0.04877695, -0.00318069, 0.00022160, 0.00225582, 0.00926852, 0.00318672, -0.00157280, -0.00508025, -0.00652880, -0.00537778, -0.00245271, -0.00306402, -0.01446860, -0.01329589, 0.00001555, -0.00003196, 0.00014002, 0.00038550, -0.00096154, 0.00600623, -0.00512069, -0.00714088, -0.01635933, -0.00952520, -0.00484783, 0.00054013, 0.00594316, -0.00567434, -0.00492748, 0.00016381, 0.00360957, 0.00087784, 0.00445469, 0.00476856, -0.00197754, -0.00277109, -0.10311099, -0.00452088, -0.00511059, -0.00198921, 0.00058130, 0.00001642, -0.00000204, -0.00003858, 0.00001155, 0.00019323, -0.02051410, -0.00098957, -0.00740911, -0.05323794, -0.00804909, -0.06955985, -0.10222868, -0.00630824, -0.00225348, -0.00500951, -0.02303721, -0.00510868, 0.00022199, -0.03137709, 0.00765552, 0.00838362, -0.00014386, -0.10643167, -0.05479402, -0.05625410, -0.01269672, -0.00034578, -0.00001542, -0.03284035, 0.00001662, 0.00003885, 0.00034011, 0.00004466, -0.00878629, -0.02726982, -0.11805135, -0.03409736, -0.00268306, -0.00066907, -0.00517239, 0.00355878, 0.01623858, 0.00087020, -0.00476156, -0.00233423, -0.03819272, -0.00559570, 0.00626722, 0.00564151, -0.02382975, -0.07320114, -0.00465277, -0.00400854, -0.00681276, 0.01007696, 0.00221218, 0.00062385, 0.01701981, 0.00000890, 0.00017469, 0.00030973, 0.00008834, -0.00340375, -0.10427448, -0.00429480, -0.00061438, 0.00220185, -0.00068635, -0.00049792, 0.03221348, 0.03723074, -0.00181232, 0.00093834, 0.00129528, -0.00425869, 0.00488916, 0.00450721, 0.00029108, -0.00014502, 0.00208683, -0.00949614, -0.00392229, 0.00110853, 0.00482969, 0.01001193, 0.00000445, -0.00004305, 0.00029328, 0.00006466, 0.00025510, 0.00006538, 0.00761814, 0.00159037, 0.00442732, 0.00260633, -0.00168173, 0.00010028, 0.00274066, -0.00131936, 0.01614158, 0.00479524, 0.04415474, -0.00035656, 0.00166823, 0.00064136, 0.00160343, 0.00157076, 0.00932217, -0.00111830, -0.00421639, -0.00114365, 0.00151715, 0.00657752, -0.00020637, 0.00004898, -0.00011914, -0.00002562, 0.00357508, 0.00033022, 0.01233746, 0.00261843, 0.00193387, 0.00233630, -0.00061363, -0.00025246, 0.00070914, -0.00419157, -0.00202561, 0.00744391, 0.06331933, 0.14200644, 0.04022199, 0.00050657, 0.00131834, 0.00967350, 0.17319128, 0.00507412, -0.00129475, -0.00570320, -0.01819122, -0.00003527, 0.00242477, 0.00010858, 0.00002354, -0.00013577, -0.00022249, -0.00027086, 0.00789565, 0.00168068, 0.00016310, 0.00090432, 0.00332456, -0.00102354, 0.00032350, -0.00044908, -0.00013935, 0.00362984, 0.00480033, 0.00968960, 0.03741149, 0.04875655, 0.05032338, 0.03229079, 0.10320085, 0.00220815, -0.00037370, -0.00041247, -0.00150583, 0.02642380, 0.00208376, 0.00486097, 0.00001819, 0.00005342, 0.00046249, 0.00092475, 0.00290194, 0.00113996, -0.00405360, -0.00087154, 0.00188355, -0.06496664, -0.07549153, -0.04149429, 0.00080456, -0.00294702, 0.00108254, 0.02106364, 0.00504464, 0.00317732, 0.00595528, 0.00565039, 0.00929911, 0.00721214, 0.00285722, 0.00379867, -0.00327431, 0.00010385, -0.00000484, 0.00026785, 0.00000072, 0.00001958, 0.00203957, 0.00147669, -0.00004169, -0.04686929, -0.07685263, -0.05868282, -0.09391306, -0.17240357, -0.07647389, -0.09443542, 0.00046888, -0.00084874, 0.00521209, 0.01080199, 0.00107826, 0.00509821, 0.00170728, 0.00652811, 0.01617997, 0.02159802, 0.00182823, 0.00078460, -0.00504241, 0.00417001, -0.00000631, -0.00007799, -0.00001431, 0.00018037, 0.00591476, 0.00210607, 0.00012293, -0.01306607, -0.00121416, -0.00206251, -0.00561736, -0.00087640, -0.00000666, 0.00589197, -0.00006915, 0.00649233, 0.00085866, -0.00059257, -0.13307191, -0.00046589, 0.00640879, 0.00621825, 0.00860248, -0.00047310, 0.01553228, -0.00399830, 0.00044975, -0.00007002, -0.00005023, -0.00012538, 0.00002029, 0.00066933, 0.00360557, 0.00209077, -0.00357820, -0.07131195, -0.02704568, -0.00752710, -0.00227229, -0.00149230, 0.00310008, 0.00900292, 0.02500615, 0.00567092, 0.00033248, -0.00256281, -0.15075725, -0.05830213, 0.00520970, 0.00062357, 0.00411160, 0.08106112, -0.00180579, 0.00210876, 0.01175833, 0.00054584, 0.00017805, -0.00010374, 0.00012991, 0.00015742, -0.00010425, 0.00112516, -0.00593145, -0.01261721, -0.00893832, -0.00539198, -0.00117974, 0.00145013, 0.00201569, 0.00525148, 0.02928802, 0.00291788, -0.00106480, -0.01499044, -0.08799070, -0.17689648, -0.00652684, -0.00336045, -0.00255015, 0.00660170, 0.00735051, -0.00310765, -0.01674885, -0.00000188, -0.00001321, -0.00006321, 0.00000354, -0.00002941, -0.00215993, -0.00466944, -0.00710286, -0.01997939, -0.01170514, -0.00343825, 0.00014454, 0.03239997, 0.05810907, 0.00310995, 0.01352650, 0.00403539, -0.00551421, -0.04061314, -0.02145106, -0.15393619, -0.16543335, -0.08965956, -0.07477463, 0.00006999, -0.00873938, -0.00228255, -0.00978566, 0.00000141, -0.00002418, 0.00016046, 0.00000294, -0.00000060, 0.00009911, -0.01470720, -0.01246416, -0.01693260, -0.03087586, -0.00234989, 0.00277383, 0.00585953, 0.00222093, -0.00150667, 0.00208980, 0.00773340, -0.00322707, -0.08285179, 0.00559748, -0.00203354, -0.00044991, -0.01557936, -0.00785356, -0.00780136, -0.02036946, -0.01328150, 0.01074048, 0.01608104, 0.00011142, -0.00032027, -0.00001544, 0.00000219, -0.00016506, -0.01546869, -0.01050407, -0.01940057, -0.00924068, 0.00055146, 0.01008613, 0.01101569, 0.00031314, 0.00002978, 0.00260876, -0.00012958, -0.00625235, 0.00051116, 0.00032687, -0.00161189, -0.00198948, -0.01580169, -0.01890608, -0.02664375, -0.02962538, -0.02610618, 0.02291305, 0.02492467, 0.00001449, -0.00026557, 0.00008738, -0.00007365, -0.00026592, 0.00000044, -0.01887996, -0.00369211, 0.00124384, 0.00055505, -0.00082119, -0.00273942, -0.01022676, -0.00317525, -0.00350734, -0.00494212, -0.00950319, -0.00157814, -0.00492248, -0.00449687, 0.00029240, 0.00032711, -0.00166932, -0.00000356, 0.00002244, 0.00008085, -0.00011803, 0.00001918, -0.00017653, -0.00001480, -0.00013199, -0.00010156, -0.00011065, -0.00007446, -0.00011959, 0.00000972, -0.00007992, -0.00092411, -0.00041099, -0.00721112, -0.01175850, -0.00032662, 0.00048819, 0.00061763, -0.00148414, -0.00003641, 0.00048731, 0.00012328, 0.00029404, 0.00048604, 0.00009330, 0.00001298, 0.00010536, -0.00005756, -0.00003252, 0.00009905, 0.00005677, -0.00003849, -0.00022365, 0.00015035, 0.00010631, -0.00004985, -0.00007141, 0.00026245, -0.00009905, -0.00025777, -0.00012693, -0.00011972, -0.00019429, 0.00023262, -0.00010684, -0.00007803, -0.00009179, -0.00014236, -0.00014820, -0.00001895, -0.00011089, 0.00037944, -0.00024678, -0.00017325, -0.00016809, 0.00009574, -0.00020114, 0.00021871, -0.00008753, 0.00004028, 0.00007742, -0.00026375, -0.00030938, -0.00003427, 0.00011150, -0.00011995, 0.00000044, -0.00001929, -0.00014961, -0.00000557, -0.00089184, -0.00070995, -0.00037662, -0.00095028, -0.00001944, -0.00081763, -0.00036894, -0.00032300, 0.00004425, -0.00025231, 0.00017457, -0.00007458, 0.00014640, 0.00029954, 0.00009565, -0.00033031, -0.00012610, 0.00002275, -0.00019487, -0.00015934, -0.00000465, -0.00003215, 0.00003484, -0.00001940, 0.00000588, -0.00002114, 0.00000465, -0.00032924, 0.00042864, 0.00026969, 0.00034934, -0.00033393, -0.00056030, -0.00242450, -0.00030643, -0.00125801, -0.00041286, 0.00063051, 0.00004914, -0.00123489, -0.00030383, 0.00009848, 0.00010699, 0.00009670, 0.00020314, -0.00014347, -0.00011697, 0.00020619, 0.00001154, 0.00578034, 0.01596399, 0.00380225, 0.00193331, -0.00104011, 0.00168987, 0.00285175, 0.02185941, 0.00771361, 0.02606594, 0.00492666, 0.00887445, 0.00945857, 0.01037860, 0.00320469, 0.00079684, -0.00116046, 0.00012232, -0.00740751, -0.01267650, -0.01079614, -0.01016272, 0.00017916, 0.00006079, -0.00030976, -0.00017803, -0.00032547, 0.00022198, -0.00000702, 0.00730521, 0.00549919, 0.00484081, -0.00164094, 0.00549890, 0.00260055, 0.00028427, -0.00016054, 0.00240564, 0.00236736, 0.00320458, 0.01782998, 0.00592640, 0.00597914, 0.00472535, 0.00578605, 0.00139039, -0.00664050, -0.00851405, -0.02093655, -0.01864113, 0.00000009, -0.00000654, -0.00008534, -0.00026151, -0.00001043, -0.02504947, -0.02785697, 0.00158995, 0.00171853, 0.00026810, -0.00073353, -0.00042911, -0.01114388, -0.00070521, 0.00367579, 0.00242677, -0.00160781, -0.00047879, 0.01121374, 0.01046692, 0.00541731, 0.00253543, 0.00506293, 0.00815098, -0.00269264, -0.00140943, -0.00292929, -0.01469606, -0.00013403, -0.00003462, 0.00010228, 0.00001584, 0.01605422, 0.00160103, -0.00796448, 0.00078391, -0.00346041, -0.00835378, -0.00899565, -0.10607188, -0.02590747, -0.00024199, 0.00694627, 0.00792702, -0.07227887, -0.12556306, -0.12888393, -0.04401848, 0.00347849, -0.09388909, -0.06473805, 0.00460550, 0.00129257, -0.06362229, -0.08031473, 0.00193989, -0.00047054, 0.00835853, -0.00003960, 0.00073157, -0.00544231, -0.00442311, -0.00975346, -0.03812911, -0.00563080, 0.00258769, -0.01557123, -0.05942093, -0.00496054, 0.00264921, -0.00301729, -0.09899950, -0.12215756, -0.07357013, -0.06017340, -0.12518221, -0.00656921, -0.02878652, -0.03012549, -0.03052707, 0.00333927, -0.00150246, -0.00500459, -0.03723935, -0.00244371, -0.00010476, 0.00624320, 0.02768781, -0.00143488, -0.00562192, -0.01062759, -0.00155345, 0.00225940, -0.00019953, -0.00482370, -0.01285625, -0.00743992, -0.00345444, -0.00245564, -0.01282991, -0.00229211, -0.00216749, 0.00200504, -0.00294126, -0.00258315, -0.04882794, -0.02275095, -0.00513980, -0.00308774, -0.00101724, -0.00531873, -0.06484202, -0.00254151, -0.00397383, -0.00009159, -0.00000760, 0.00470312, -0.00078612, 0.13354366, 0.03682929, 0.06414025, 0.00689252, 0.00036332, -0.00661874, -0.00172868, 0.00844805, 0.02497202, 0.04488556, 0.03150271, -0.00138457, 0.02608448, 0.02355974, 0.14592981, -0.00770437, -0.00609834, -0.00544610, -0.00270865, -0.00049304, -0.00327237, -0.00705183, -0.00600650, 0.06357590, -0.00001973, -0.00000836, 0.00647469, -0.00021667, 0.03500357, 0.00592306, 0.01446802, -0.00093668, -0.00085650, 0.12500091, 0.14015554, 0.24988757, 0.10425580, 0.34019461, 0.21075992, 0.01474706, 0.07977368, 0.03340265, 0.03021576, 0.00716070, 0.14384204, -0.00236690, 0.07363867, 0.08563418, 0.05117641, 0.03265509, 0.00025839, -0.02027462, 0.00002833, -0.00000247, 0.01015681, 0.02830728, 0.06471281, 0.05407103, -0.00149633, -0.00284220, -0.00280549, -0.00559476, 0.09014615, 0.22191617, 0.00365959, 0.26370013, 0.16655149, 0.00962683, -0.00057171, 0.08056011, 0.06516256, 0.02739446, 0.07737572, -0.00216947, 0.02353840, 0.02726626, 0.11324132, -0.00383608, -0.00004858, -0.00688698, 0.00006503, -0.02125948, 0.04356369, 0.01349411, 0.00029458, -0.00240628, -0.00960210, 0.11820694, 0.03664582, 0.00341084, 0.01100974, 0.04703053, 0.00739745, 0.00569047, 0.00026448, -0.03507458, -0.00435608, -0.00331082, 0.00202564, -0.00063299, 0.00210470, 0.02281252, 0.01919297, 0.00709082, 0.00145334, -0.00139781, 0.08182725, 0.01680816, -0.00005631, -0.00021608, 0.02459032, 0.00966069, 0.00476349, 0.03039926, -0.00830410, -0.00849111, -0.00220310, 0.00625904, 0.04531940, 0.02164721, 0.00936865, -0.15326872, -0.05367031, -0.27194670, -0.04078719, -0.06769886, -0.09345729, -0.03287360, 0.00307216, 0.00266631, 0.00203179, 0.00043320, 0.05011255, -0.00286572, -0.01150311, -0.02393369, 0.00002904, 0.01173336, 0.00392287, 0.02706672, 0.00272304, -0.00542301, -0.01038563, -0.00997318, -0.00030905, 0.01308059, 0.01856051, 0.00339656, -0.10490996, -0.11985440, -0.05772353, -0.05517542, -0.14383744, -0.17425095, -0.11372112, -0.00490345, 0.00549592, 0.03446086, 0.00719745, 0.04844462, 0.07887697, -0.00798602, 0.00482734, -0.01106121, -0.00012133, -0.00000847, -0.00007120, 0.00837468, 0.00017967, -0.00248775, 0.00128658, -0.00723987, -0.03688014, 0.00543466, 0.00533935, -0.06493862, -0.05364772, -0.10734054, -0.07267854, -0.02103675, -0.03235403, -0.06108386, -0.00784300, -0.05236321, 0.00385790, 0.06546272, -0.00013625, 0.04537047, 0.00499289, -0.01015380, 0.02588355, -0.00466367, -0.00001131, -0.00022025, -0.00006313, 0.00256779, -0.00321475, -0.00506712, 0.00192915, 0.00179045, 0.00150274, 0.00261907, -0.04916347, -0.14657232, -0.10720415, -0.00179778, -0.10586686, -0.04905922, -0.00727421, -0.00193580, -0.00770118, -0.01310409, 0.00024109, 0.07067088, 0.01375435, 0.01587672, 0.06449733, -0.00339667, 0.00005817, 0.00793510, 0.00001003, 0.00000523, -0.00003868, 0.00005962, -0.00147947, -0.00358898, 0.00177375, 0.01352996, 0.00532547, -0.00258211, -0.02782736, -0.10741859, -0.04960686, -0.06209780, -0.07823510, -0.00597185, -0.00967797, -0.00500919, 0.00625426, -0.02718318, -0.00000433, 0.03160796, -0.00124010, -0.00342645, 0.05839803, -0.00084427, -0.00253105, 0.01304962, 0.00967056, -0.00005118, 0.00356906, -0.00001842, 0.00593575, -0.00197875, -0.00042687, 0.00236106, 0.00294808, -0.02776734, 0.00318976, -0.05484127, -0.09813450, -0.02277128, -0.00495923, -0.03678211, -0.16038191, -0.00087898, -0.04802197, -0.03220245, 0.00023717, -0.00345773, -0.00664085, -0.00556709, -0.00111457, -0.00246785, -0.00016004, -0.00001298, -0.00008622, 0.00002102, 0.01548560, 0.00019496, 0.01252404, -0.00207251, -0.00230670, -0.00118114, -0.00057572, -0.00346249, -0.15912196, -0.15700489, 0.00170986, 0.00006636, -0.00808305, -0.07034349, -0.00742450, 0.00225727, 0.00049726, -0.00012318, -0.00760720, -0.15465701, -0.12185372, -0.02578239, -0.00089983, -0.00053126, -0.00099234, 0.00000234, -0.00004445, 0.00017297, 0.00085383, 0.00037507, 0.00068758, -0.00376838, -0.00489592, -0.00130986, -0.00135716, -0.01113856, -0.01760983, -0.00628375, 0.00021359, -0.01040893, -0.10029681, -0.06244112, -0.01262101, 0.00110305, 0.00089663, 0.00042661, -0.04121576, -0.05659435, -0.00146501, 0.00793875, 0.00080766, -0.00044836, -0.00011500, 0.00000720, -0.00004869, -0.00013596, -0.04873250, -0.00471702, -0.00209355, -0.00554814, -0.00096530, -0.00045959, -0.00315080, -0.00435487, -0.00477420, -0.00230422, 0.00028894, -0.00124544, -0.00499656, 0.00136976, 0.00222991, 0.00708907, 0.00995045, -0.00150796, -0.03066437, -0.00831240, -0.00088280, 0.00943673, 0.00461532, -0.00394598, -0.00009288, -0.00000327, -0.00020733, -0.00026119, -0.00022218, 0.00008679, -0.01207531, -0.00531077, -0.00114069, -0.00368618, 0.00190669, 0.00275329, -0.00126770, 0.00427309, 0.00284213, 0.01150961, 0.00965165, 0.05955525, 0.04111847, 0.09667476, 0.00493153, -0.00076661, -0.03536692, -0.07041364, -0.00416839, 0.01013923, 0.01034140, -0.01092939, 0.00001823, 0.00000190, 0.00036311, 0.00002324, 0.00000443, 0.00005563, -0.00891158, -0.00364472, -0.00559833, -0.00335487, 0.00994702, 0.08796260, 0.09677833, 0.01200126, 0.01360549, 0.02683336, 0.03038974, 0.01408854, 0.00142467, 0.00283417, -0.00120727, -0.01345013, -0.05425504, -0.04194185, -0.01362704, 0.00101687, 0.02089975, -0.01722757, -0.00007517, -0.00000284, 0.00004617, -0.00039960, -0.00000387, -0.00009233, -0.01597855, 0.08954112, -0.01528381, -0.00920611, -0.00315459, 0.00874378, 0.02767607, 0.00857844, 0.01553712, 0.02594101, 0.03623897, -0.00176674, -0.00138363, -0.00376199, -0.00790231, -0.00586929, -0.04282038, -0.00083035, -0.00341965, 0.00817820, 0.02778610, -0.00003590, -0.00566204, 0.00020817, -0.00006126, -0.00008028, -0.00000196, 0.00000623, 0.00606085, -0.00375615, -0.01081680, 0.05568776, 0.03443132, 0.01651509, 0.00262985, -0.00296799, 0.00607050, 0.04761222, 0.00421051, -0.00207714, 0.06771771, 0.02582406, 0.04424310, 0.00538022, 0.00712343, 0.00412022, 0.00198814, 0.00818325, 0.09092076, -0.01124971, -0.01555496, -0.00005090, -0.00012365, 0.00012094, -0.00006620, -0.00002704, -0.00445192, -0.03978292, -0.01493882, 0.00354665, -0.00277547, -0.00692655, -0.00538754, -0.00820310, 0.04823914, 0.02949220, 0.00163868, 0.04822663, 0.02594713, 0.01624102, -0.00142748, 0.00943674, -0.00138399, 0.00698519, 0.01740508, -0.01443878, 0.00004369, 0.00017584, 0.00000380, 0.00021149, -0.00009481, -0.00022872, 0.00000207, 0.00016741, 0.02530007, 0.02091513, 0.01020779, 0.00000633, -0.00090031, 0.01880995, 0.05936252, -0.00005767, 0.00072106, 0.00046810, 0.00040945, -0.00863285, 0.00032973, 0.00012931, 0.00009615, -0.00004784, 0.00006909, 0.01963795, 0.00048816, 0.01078204, -0.00027296, 0.00023572, -0.00001229, -0.00027176, 0.00024627, 0.00006487, -0.00002937, -0.00008389, -0.00006013, 0.00002834, 0.00040187, 0.00008976, 0.00017808, 0.00032138, 0.00006156, -0.00008042, 0.00028573, 0.00029075, 0.00024446, -0.00005265, 0.00003540, 0.00002524, -0.00012669, -0.00006826, -0.00003640, 0.00003570, -0.00013906, 0.00009791, -0.00011893, -0.00017195, -0.00008258, -0.00022481, -0.00021145, 0.00009570, 0.00018273, 0.00001693, 0.00006166, -0.00655648, -0.01081443, -0.00366476, -0.00391772, -0.00140673, 0.00025953, 0.00025175, -0.00006466, -0.00029760, -0.00016471, -0.00555245, -0.00690629, 0.00271173, 0.00638013, 0.00002540, 0.00000702, 0.00002520, 0.00020539, -0.00003044, 0.00032235, -0.00001480, -0.00000925, -0.00015452, -0.00005377, 0.00018405, 0.00000332, -0.00002960, 0.00001881, -0.00221456, -0.00290442, 0.00025192, 0.00044162, 0.00021259, -0.01364830, -0.01719784, 0.00027550, 0.06815923, -0.00165455, -0.00495845, 0.00430614, 0.01380902, 0.00014253, 0.00050326, -0.00025060, 0.00008953, 0.00055256, 0.00032016, -0.00000372, -0.00020166, -0.00003756, 0.00000833, 0.00000143, -0.00000116, 0.00010255, 0.00000099, -0.00000478, 0.00005201, 0.00015584, 0.00035213, 0.00042703, -0.00410554, -0.00123352, -0.00543076, 0.01105420, 0.01902944, 0.02691537, 0.00336484, 0.00623278, 0.01268033, -0.06004382, -0.00647858, -0.00551455, -0.00335185, 0.00019197, 0.00544306, -0.00000943, -0.00003716, 0.00133200, -0.00013925, 0.00004211, 0.00011665, -0.00004959, 0.00379324, 0.00011826, 0.00004752, -0.01544903, -0.04645757, -0.13252097, -0.01412206, -0.00747635, -0.00484711, -0.00243591, 0.00230731, 0.00244225, 0.00094811, -0.02780975, -0.00729907, -0.00531319, 0.00021687, -0.00442716, -0.00427810, -0.00189794, 0.00261655, -0.00093860, -0.00499444, -0.00839814, 0.00289685, -0.00008367, 0.00002348, -0.00015023, 0.00005097, 0.00351588, 0.00177370, -0.01548651, -0.14021659, -0.12925074, -0.01084828, -0.00696076, -0.00296627, 0.00448669, 0.01775040, 0.08494701, 0.00319692, 0.00050290, -0.00158685, -0.00279957, 0.00097944, -0.03147461, -0.00356726, -0.00093534, 0.00122168, 0.08326000, 0.00154453, -0.00178547, 0.00287254, 0.00021826, -0.00000143, -0.01383993, 0.00008104, 0.02248162, 0.02030561, 0.00516753, -0.07484924, -0.05723881, -0.01924897, 0.00013370, 0.00547956, 0.10941254, 0.11093546, 0.08187465, -0.00330144, -0.08626830, -0.17703462, -0.09770670, -0.00004634, -0.03777237, -0.00251355, 0.00461099, 0.00350646, 0.11925835, -0.00358178, -0.00003821, 0.00577349, -0.00010927, 0.00011756, -0.01871666, -0.00788599, 0.01078490, 0.01430330, -0.04130981, -0.13563833, -0.13241746, -0.00577655, 0.00463474, 0.05592633, 0.17714460, 0.03014887, 0.06582818, -0.00880737, -0.09735162, 0.00115034, -0.00807563, -0.04590891, 0.00270221, 0.00642624, 0.00603888, 0.02257135, -0.00456329, -0.00023622, 0.02659802, 0.00366919, 0.02789681, 0.00022415, -0.00731879, -0.01004945, 0.00029089, 0.01074514, 0.00251074, -0.06345413, -0.17482878, -0.03506380, 0.00281264, 0.00937219, 0.16484675, 0.15560722, 0.05042618, -0.00546723, -0.16155685, -0.02910693, -0.01389983, -0.00570739, 0.00702568, 0.01818995, 0.00675079, -0.01309015, -0.00277164, -0.00229625, 0.00013986, 0.00001645, 0.00009023, -0.00000996, 0.00016246, -0.00376197, -0.00335160, 0.00207367, -0.00416141, -0.05321055, -0.13663293, -0.11225373, -0.00608932, 0.02857346, 0.00051830, 0.04480624, 0.03685243, -0.11064784, -0.16008188, -0.07388636, 0.00002688, -0.00179162, 0.00357508, 0.00635889, 0.00101884, -0.00237726, -0.00313243, -0.00301570, 0.00008234, -0.01490034, 0.00010253, 0.00008960, -0.00953877, -0.00697979, -0.00746266, -0.01113361, -0.00854235, -0.00200437, -0.09692568, -0.12869620, -0.00650412, 0.05931644, -0.00332242, 0.17001498, 0.08412827, -0.00382937, -0.14578891, -0.00443769, -0.00355048, -0.00229505, -0.04060877, 0.00308694, 0.00047587, -0.10026161, -0.01173649, 0.00057426, 0.00023389, -0.01643120, 0.00011409, 0.00036069, -0.00878642, -0.00584316, -0.01866667, -0.02152370, -0.00729088, 0.00033283, -0.12702800, -0.09567291, -0.00885211, -0.00963912, 0.07049359, 0.20407310, 0.00041145, -0.10153934, -0.04378096, 0.03919908, 0.00261711, -0.00316577, -0.03851669, 0.00176490, 0.00297741, 0.00175512, -0.10948862, -0.00831572, 0.01460034, -0.00071455, 0.00025097, -0.00014089, 0.00012937, -0.01740110, -0.01706357, -0.01262400, -0.00782453, -0.00181367, -0.07382467, -0.07616736, -0.00493245, 0.01470181, 0.18029733, 0.24110214, 0.01774902, -0.04835599, -0.03575089, -0.00778993, 0.02081316, -0.00715009, -0.00111075, -0.00305252, 0.00335526, 0.00616437, -0.00286022, -0.02344979, 0.00518643, 0.01452540, 0.00023676, -0.00007876, 0.00003232, -0.00977769, -0.01960361, -0.00701902, -0.05787555, -0.00128766, -0.02811285, -0.00105866, -0.00186910, 0.18248959, 0.24861650, 0.00134533, -0.00951153, -0.05417913, -0.01199687, -0.00118957, 0.01660483, -0.00711961, -0.00592201, -0.01272518, -0.02609609, -0.00973065, -0.09141590, 0.00797100, -0.03766236, 0.01274539, -0.00000654, 0.00004421, 0.00001518, 0.00017435, -0.01421886, 0.00001026, -0.21067606, -0.00276233, -0.00601720, 0.03675306, 0.10453115, 0.08217304, 0.09527274, -0.00294596, -0.00500782, -0.06757127, 0.00001739, 0.00338840, 0.04302619, -0.00767727, -0.00260814, -0.01238881, -0.01680201, -0.00721865, -0.00970764, -0.02861607, -0.03917298, 0.00000920, -0.00006220, -0.00016347, 0.00000158, 0.00013752, 0.00054578, -0.07646096, -0.13848995, 0.00026038, -0.00114898, -0.00225507, 0.01273267, 0.07347741, 0.04154764, -0.01313727, -0.01506342, -0.00151534, 0.01078839, 0.12559852, 0.03974545, 0.06470647, 0.00115531, -0.00478924, -0.01262300, -0.00975922, -0.00157598, 0.00555361, -0.03683495, 0.00063539, 0.00000720, -0.00002457, 0.00012090, -0.00052464, 0.00079880, -0.01746003, -0.05945735, -0.00503035, 0.00064783, -0.00522003, -0.00132167, 0.04166112, -0.00878089, -0.00815370, -0.01418140, 0.00050623, 0.01103778, 0.00707738, -0.00370939, 0.01381295, -0.00251242, -0.01660810, -0.02356233, -0.00271216, 0.00423326, -0.06215240, -0.00533192, -0.00210001, -0.00000116, 0.00000460, 0.00012821, 0.00122384, -0.00346155, -0.01594944, -0.01841772, -0.00296594, 0.00351021, 0.00089867, 0.09234098, 0.18004006, -0.00723911, -0.00744669, -0.00213575, -0.00632027, 0.01096563, 0.00518928, 0.05615106, 0.07338388, 0.00030634, 0.00007023, -0.00126430, -0.01388123, -0.00674734, -0.17088552, -0.00462052, -0.00279234, -0.00990059, 0.00006164, -0.00208023, 0.00018427, -0.00029770, -0.01158883, -0.00440362, -0.00064061, 0.01882310, 0.01737872, -0.00007969, -0.00296251, -0.00316066, -0.00974242, -0.00632339, 0.00249538, 0.01558930, -0.00205382, -0.00556408, 0.05546802, 0.00240129, 0.00067941, -0.03211498, 0.00292280, -0.04931155, -0.02674122, -0.00008097, 0.00015861, 0.00006896, 0.00048486, 0.00956828, -0.00008009, 0.00451673, 0.00296158, 0.00250014, 0.00560638, 0.00789756, 0.11676720, 0.00677286, 0.10877593, 0.02365003, -0.00390579, -0.00060341, -0.00153392, -0.00195385, -0.01203218, -0.00626173, -0.00221500, 0.00017367, -0.01053191, -0.22477651, -0.00005872, -0.00092374, -0.00178823, -0.02267083, -0.00000001, 0.00019222, 0.00850514, 0.00173513, -0.00104451, 0.00200076, 0.00005728, 0.00204500, 0.00242521, 0.00293295, 0.07151389, 0.00666822, 0.10344882, 0.11008309, 0.00464950, -0.00558900, -0.01401573, -0.00241298, -0.00945679, -0.00498462, -0.00323091, 0.00254206, -0.00650201, 0.00205652, 0.00922954, -0.00000939, -0.00688081, 0.00005012, -0.00000888, 0.00021438, -0.00000851, -0.00260289, 0.00011897, -0.05934863, -0.00019352, 0.00075205, 0.00252929, -0.00158845, 0.00272582, 0.00413863, 0.02910962, 0.00186383, -0.02148717, -0.03105551, -0.00059588, -0.00020409, -0.00609470, -0.00615780, -0.01047719, -0.00210535, -0.00541725, 0.00473217, 0.00635234, -0.00914561, -0.06021926, 0.00009615, -0.00001706, -0.00016742, 0.00001218, 0.00014772, -0.00128954, -0.00103622, -0.04190962, -0.15650232, -0.02972101, -0.06490272, -0.06217596, 0.00073091, 0.00974388, 0.14344093, -0.00496203, 0.00057883, 0.00119198, 0.00176285, -0.00707615, -0.01737538, -0.00608350, -0.00965007, -0.00650423, 0.00163057, 0.00436435, -0.00111086, 0.00012020, -0.00000103, -0.00001314, 0.00007822, -0.00007454, -0.00003288, -0.00183463, 0.00413137, 0.00129007, -0.00147253, -0.00349178, -0.00820717, -0.00060729, 0.00243910, 0.03353976, 0.01974569, 0.00380781, 0.00599193, 0.00732376, -0.00066965, -0.00351023, -0.01226404, -0.01475534, -0.08895119, -0.03560234, -0.00810034, 0.00012699, 0.00005646, 0.00000411, 0.00001675, -0.00022323, 0.00014569, 0.00004742, 0.00000190, 0.00006544, -0.01606934, 0.00665787, 0.00137477, 0.00107984, -0.10071293, 0.00922821, 0.02401742, 0.00433344, -0.00164831, 0.00904995, 0.10261496, 0.02544467, -0.00091700, -0.01190537, -0.02062611, -0.01518588, -0.00299597, 0.00199398, 0.00835550, -0.00010856, -0.00637287, 0.00087791, -0.01230043, -0.00014164, 0.00012589, 0.00015410, -0.00015178, 0.00005212, 0.02941273, 0.02129997, 0.01180556, -0.01280511, -0.03750526, 0.00863633, -0.00032742, -0.00424803, -0.06893428, -0.09013043, -0.16289836, 0.00806323, -0.06171797, -0.16362302, -0.00295810, -0.00412366, -0.00020759, 0.00761460, 0.04849489, 0.03154200, 0.00000383, -0.02551446, -0.02684202, -0.00005479, -0.00010579, 0.00015146, 0.00021604, 0.00003172, 0.03802836, 0.04495750, 0.02119212, -0.00300231, -0.00712176, -0.00589385, -0.04112551, -0.00520444, -0.00346277, 0.00159120, 0.00454736, 0.07714567, 0.00369532, -0.00952716, -0.01177340, 0.00029947, -0.00144998, -0.00034137, 0.00229130, -0.01876521, 0.00005952, -0.00035429, -0.00010762, 0.00011328, -0.00011346, -0.00005291, 0.00017682, -0.00010351, -0.00003250, -0.00028239, 0.00021761, -0.00025088, 0.00000643, 0.00009987, -0.00000824, 0.00083197, 0.00064135, -0.04201676, -0.01817357, -0.02027043, 0.00052576, 0.00025494, -0.00012666, -0.00001851, 0.00002743, -0.00008250, -0.00013828, 0.00032430, -0.00000715, -0.00019904, -0.00011404, -0.00011815, -0.00012142, -0.00000723, 0.00013496, 0.00017278, 0.00013230, 0.00012408, -0.00003547, -0.00037260, 0.00014895, -0.00000072, -0.00005670, 0.00000873, -0.00019711, 0.00016082, -0.00006376, 0.00014221, 0.00017169, 0.00013224, -0.00017124, 0.00009528, -0.00027183, -0.00013304, -0.00027236, 0.00002624, 0.00025627, -0.00012810, -0.00010824, -0.00010754, -0.00011676, 0.00018119, -0.00003929, 0.00013997, 0.00004762, 0.00001854, 0.00003717, -0.00006120, 0.00004161, 0.00005604, 0.00010067, 0.00004071, -0.00239379, -0.00023811, -0.00000197, 0.00000500, 0.00009603, 0.00463654, 0.00036966, 0.00000677, 0.00007924, 0.00001388, -0.00001544, -0.00000927, 0.00016493, 0.00000614, -0.00010241, 0.00011093, -0.00021848, 0.00029782, 0.00021702, -0.00000888, -0.00002958, -0.00000261, 0.00000581, -0.00000664, -0.00003516, 0.00033000, -0.01024730, -0.00712699, 0.00018695, -0.00390341, -0.00987571, -0.00646387, 0.00021474, 0.00023791, 0.00047185, 0.00007567, -0.00084918, 0.00025626, 0.00011165, 0.00005476, 0.00018080, 0.00008268, -0.00032792, 0.00000180, -0.00001406, -0.00007850, -0.00001493, 0.00012765, 0.00019631, -0.00000971, -0.00001920, 0.00000510, 0.00061953, -0.00160501, -0.00062752, -0.00344594, -0.00061793, 0.00082265, -0.00341882, -0.00253376, -0.17411643, -0.03039812, -0.13227290, -0.00527104, -0.00071025, -0.00053206, 0.00651727, 0.00026200, 0.00050115, 0.00001312, -0.02178646, 0.00009897, 0.00006515, -0.00001375, -0.00008288, 0.00026688, -0.00235536, 0.00004356, 0.00122628, 0.00240551, 0.00776415, -0.00459681, -0.11151465, 0.00416671, 0.00104244, -0.00281752, -0.00264707, -0.00367396, -0.00120889, -0.00337784, -0.01593434, -0.00796082, -0.01624498, -0.00018153, 0.00294649, 0.00822851, 0.00425117, 0.00056062, -0.00151005, 0.00000134, -0.00027805, 0.00016181, -0.00004274, -0.01471721, -0.01427393, 0.00399934, 0.00532520, 0.00249399, -0.03242606, -0.00113056, -0.00496705, -0.02168112, -0.05698607, -0.00727722, -0.00108037, 0.00085025, 0.00564999, 0.00361390, 0.00135153, 0.00440337, -0.00003431, -0.00228157, -0.00231397, -0.00755292, -0.00654262, 0.00602464, 0.00993996, 0.00000269, 0.00002135, -0.00007285, 0.00082339, -0.03751843, -0.01132393, 0.01873134, 0.01848351, 0.01157551, 0.01102833, 0.00592377, 0.00001291, -0.00953463, -0.01604580, -0.04264672, -0.00479915, -0.00588767, -0.00135502, -0.08527896, -0.16512012, -0.11036777, -0.00100428, -0.00138107, 0.00176162, 0.00086426, -0.00726675, 0.00167372, 0.00653003, -0.00547303, 0.00002626, -0.00305696, -0.01729178, -0.02558045, 0.00007337, 0.03624225, 0.01276760, 0.03795927, 0.01069224, 0.00372085, -0.00544093, -0.02185862, -0.00910342, -0.16176905, -0.00529832, -0.07032151, -0.05060294, -0.11154693, -0.10573900, -0.00246469, 0.00073412, 0.00511655, 0.11327133, 0.00251998, -0.00029654, -0.00099674, 0.02054625, -0.00483921, 0.00013765, -0.01322644, -0.00545955, -0.01800145, -0.00003958, 0.00914661, 0.01125453, 0.00032679, -0.00302082, -0.00688271, -0.05249448, -0.09699135, 0.00027881, 0.00540633, 0.00603597, -0.00034421, -0.00495372, -0.02329372, -0.00324768, 0.00493016, 0.02040659, 0.01479609, 0.01765265, 0.00519438, 0.00136799, -0.00644756, 0.00448684, 0.00000278, -0.00005547, -0.01164468, -0.00003284, 0.00032851, 0.00219903, 0.00206351, -0.01237994, -0.00299075, -0.00197673, -0.00170718, -0.00668460, -0.08691172, 0.00386241, 0.00314443, 0.00102568, -0.01979955, -0.00206884, -0.00339773, -0.00175666, 0.00497190, 0.13027993, 0.09794708, 0.00303726, 0.00133507, 0.08020554, -0.00082217, 0.00260199, -0.04259739, 0.00012942, -0.00020835, -0.00640421, 0.00049945, -0.00420221, -0.04395264, -0.03938793, 0.00726808, 0.00735868, 0.00603535, 0.00677748, -0.00015383, -0.00850207, -0.03231174, -0.06720252, -0.00934966, -0.10785259, -0.00432008, -0.00199105, 0.00410626, 0.00597989, 0.00017340, -0.00289358, 0.00786746, 0.04739224, 0.01133282, 0.00037109, -0.02509235, 0.00004487, 0.00000500, -0.00993123, -0.00252139, -0.01099897, -0.03981860, -0.00629842, 0.00359262, 0.01155380, 0.06216991, 0.00339797, -0.01422425, -0.01145463, -0.01522440, -0.27082917, -0.17825167, -0.06370316, -0.00190918, -0.00360165, 0.00019974, -0.00297854, 0.00025305, 0.00468658, 0.00925330, 0.01175741, 0.02301861, 0.01904387, -0.00000101, -0.00009633, 0.00003616, -0.02245626, -0.00822317, 0.00213184, -0.00194857, 0.00075789, 0.00411389, 0.09021127, 0.00101691, -0.00012552, -0.01432708, -0.00587283, 0.00566503, -0.00300817, -0.05091521, -0.08342211, -0.09517612, -0.12033264, -0.00462632, -0.00161316, -0.00273933, 0.00139067, 0.00016355, -0.00255343, -0.07002094, 0.00000312, -0.03124853, -0.00011025, -0.00000326, -0.02111657, -0.01471485, -0.00210903, 0.00455966, 0.00354454, 0.02606074, 0.05760642, 0.00832029, 0.00253773, 0.13437535, 0.22449957, 0.00402411, -0.00151945, -0.00318328, -0.04391386, -0.00217408, -0.10767274, -0.00405232, -0.00189268, -0.00175773, -0.01092154, -0.00299217, -0.09669305, -0.07178716, -0.00321092, -0.00000265, 0.00002751, -0.00000363, -0.01171176, -0.07436128, -0.01404638, 0.04450478, 0.02218589, 0.18936583, 0.02047976, 0.16299626, 0.09676669, 0.00037731, 0.01896129, 0.00582170, 0.00676965, 0.00262061, 0.00077131, -0.00362102, -0.09061787, -0.00875385, -0.00660237, -0.00552258, -0.01402528, -0.02008476, 0.00002491, -0.16292812, -0.00947968, -0.00020467, 0.00001983, 0.00028235, -0.00000376, -0.00019065, -0.00646273, 0.00362793, 0.01075636, 0.01402450, 0.00741351, 0.04226726, 0.06082331, 0.00356395, 0.06568779, 0.17577685, 0.02784243, -0.00381942, -0.01056911, -0.14325364, -0.07450901, -0.05727975, -0.06757466, -0.00869602, -0.00157416, 0.00683812, -0.00334032, -0.03194075, -0.01316516, 0.00012455, 0.00003344, 0.00003187, -0.00240618, 0.00003777, -0.10184669, -0.08699704, -0.00084848, -0.13698201, -0.00369687, -0.00270267, -0.00088484, 0.00055912, 0.03899601, 0.14566936, -0.00216241, -0.00979062, -0.04028078, -0.05651588, -0.04723827, -0.01217420, -0.08984330, -0.01079032, -0.00353549, 0.00163929, 0.00054836, -0.00019108, 0.00001929, 0.00034255, -0.00002950, 0.00014073, -0.02341413, 0.00004235, -0.03453849, 0.00401383, 0.00377752, -0.05685550, -0.00268393, -0.04239998, -0.07170461, 0.00047658, 0.00244650, 0.03774856, -0.00350348, -0.00786959, -0.00369613, -0.00863517, -0.10771099, -0.09043564, -0.11650187, -0.05596642, -0.00009669, 0.01854473, 0.01085709, -0.05301067, -0.03105252, -0.00226045, -0.02029128, -0.00002267, -0.00584606, 0.00030159, -0.00196414, 0.00419842, 0.00270109, -0.07935176, -0.00377415, -0.00490964, -0.00490440, -0.00018016, 0.00100516, 0.05123894, 0.00286979, -0.00139772, -0.00095001, -0.06942354, -0.01293771, -0.00286213, -0.03060097, -0.00222672, 0.00332743, 0.01375729, 0.00573317, 0.00073753, -0.00002039, -0.00001753, -0.00006379, 0.00008351, -0.01470339, -0.00072265, -0.05367429, 0.00343478, 0.00242887, 0.00020410, -0.01717717, 0.00048928, -0.00219731, 0.00087713, 0.00085940, 0.00477473, 0.00470114, 0.00128122, -0.00574569, -0.00754351, -0.00705688, -0.01247936, 0.00167623, -0.00173022, 0.00685320, 0.00997479, 0.00706218, 0.00093603, 0.00015147, 0.00001459, -0.00016872, 0.00011925, 0.00037788, -0.00378576, 0.00107314, 0.00353068, 0.00282142, 0.00264072, -0.00209342, 0.00119496, -0.04254113, -0.00484646, -0.07960732, 0.00360587, -0.00441381, -0.00619258, -0.01638710, -0.01822493, -0.00835537, -0.00253977, 0.00648513, 0.00069201, 0.00475883, 0.01651219, 0.00707909, -0.00130468, 0.00051316, 0.00003052, 0.00029402, -0.00010109, 0.00036554, 0.00023452, 0.00026455, 0.00159271, 0.00236502, 0.00305535, -0.00652080, 0.00177983, -0.00024790, -0.00137762, -0.00071968, -0.06750092, -0.01204371, 0.00137902, -0.18888175, -0.04275204, 0.00065755, 0.00596397, 0.01132368, 0.00198655, 0.00339264, 0.05083852, 0.00532393, 0.00072915, -0.00110858, -0.00003596, -0.00008250, 0.00002022, 0.00008811, 0.00037484, -0.00318200, -0.00498658, 0.00088972, 0.00072787, 0.00258141, 0.00149385, -0.00160270, 0.00447337, 0.00696670, -0.02989531, -0.00368541, 0.00207125, 0.00365101, 0.00295801, 0.00508263, 0.15450048, 0.00410651, 0.00504876, 0.04698176, 0.12852500, 0.00921698, 0.01447300, 0.00000857, 0.00003916, 0.00018152, 0.00015886, 0.00009310, 0.00002249, -0.04855315, -0.01876810, -0.00602246, 0.00187302, 0.00408619, 0.00328241, 0.03404703, 0.00116284, 0.00077318, -0.00167081, -0.01451875, 0.00266859, 0.02012174, 0.06657750, 0.11269145, 0.01478419, 0.00036117, 0.00487246, 0.01222533, 0.01827432, 0.00915816, 0.00432745, 0.02734969, -0.00024981, 0.00000051, 0.00022632, 0.00009947, 0.00000656, -0.04002229, -0.02870158, -0.03589600, -0.00349485, -0.00447022, 0.00749789, 0.00134077, -0.00084014, -0.00331453, -0.00244206, 0.03115349, 0.00464675, 0.10415979, 0.09233039, 0.17257407, -0.00004058, 0.00253885, 0.00432077, 0.00469035, 0.01670129, 0.01547165, -0.01402353, -0.02523430, -0.00000609, -0.00002947, 0.00010840, 0.00013516, -0.01425791, -0.02412277, -0.04418214, 0.00687648, -0.07540936, -0.00004159, -0.00609013, -0.00604447, -0.07718349, -0.01750519, 0.02473089, 0.00112136, 0.03097426, 0.00248626, -0.00284988, 0.03014889, 0.02655372, 0.00318542, 0.00159480, 0.01527664, 0.04420030, 0.04272665, -0.02341627, -0.02516754, 0.00001038, -0.00017799, -0.00020969, -0.00010683, -0.00014077, -0.00384626, -0.00108484, -0.02693703, -0.01204763, -0.00630247, -0.19564939, -0.05479515, 0.00282571, -0.00869201, 0.00029327, 0.00429924, 0.01504578, 0.00664547, -0.00355867, -0.00398829, -0.00008770, 0.00009767, -0.02375324, -0.00987099, -0.01352399, 0.00002679, -0.00010442, -0.00006265, -0.00034683, -0.00014583, -0.00003791, -0.00008680, -0.00006578, -0.00004614, -0.00000732, -0.00001165, -0.00008955, 0.00230618, 0.00192145, -0.00484554, 0.00001159, 0.00186623, -0.02106520, -0.03013011, -0.00222462, -0.00039996, -0.00029009, -0.00017160, 0.00000300, -0.00018640, -0.00000345, -0.00000525, 0.00021359, -0.00006294, -0.00005474, -0.00010229, 0.00013002, 0.00016902, -0.00000309, -0.00007915, 0.00000753, 0.00035320, 0.00033726, -0.00000707, 0.00002493, 0.00003464, 0.00028485, 0.00006852, -0.00009546, -0.00021186, 0.00033949, 0.00030883, -0.00001849, 0.00006773, 0.00011835, 0.00006967, -0.00024594, -0.00021591, -0.00017538, -0.00026490, -0.00010453, -0.00004820, -0.00001337, 0.00003774, 0.00015783, 0.00007666, 0.00000334, 0.00026128, 0.00026523, 0.00023801, -0.00011949, 0.00004658, 0.00018626, 0.00041965, 0.00026574, -0.00008415, 0.00062877, 0.00045982, 0.00052279, 0.00123881, 0.00040734, 0.00013292, 0.00007910, 0.00043802, -0.00006802, -0.00004883, -0.00028013, -0.00016720, -0.00003701, 0.00000255, 0.00013908, -0.00017923, -0.00006020, 0.00015482, -0.00015339, -0.00020592, 0.00000121, 0.00007357, 0.00023100, 0.00009014, 0.00008579, 0.00051746, 0.00126162, 0.00229861, 0.00251402, 0.00201801, 0.00168392, 0.00204237, 0.00136237, 0.00237211, 0.00247993, 0.00205996, 0.00219310, 0.00181216, 0.00302177, 0.00205576, 0.00045209, -0.00010309, 0.00049020, -0.00008305, 0.00003358, -0.00013795, 0.00007248, 0.00008064, 0.00002436, 0.00001376, -0.00394383, -0.00284898, -0.00169768, -0.00133036, -0.00231927, -0.00091933, 0.00006605, 0.00162041, 0.00633524, 0.00521843, -0.00270264, -0.00321524, 0.00324061, 0.00982667, 0.00807473, 0.00527896, 0.00084987, -0.03236499, -0.00082238, 0.00050767, 0.00005116, -0.00005987, 0.00022817, -0.00024817, -0.00000659, -0.00021383, 0.00022496, -0.00001764, -0.00205781, 0.00142773, 0.01095447, 0.03152064, 0.03538471, 0.00489281, 0.00434256, 0.00879778, 0.09495192, 0.18184111, 0.05030468, 0.02956942, 0.01071502, 0.00685253, 0.00907776, 0.00962989, 0.00418358, -0.01049502, -0.00595941, -0.03800616, -0.00108966, 0.00002377, 0.00023032, 0.00002927, -0.00029795, -0.00005875, 0.01860396, 0.01058527, 0.00196377, 0.00659826, 0.01214194, 0.00833077, -0.01978393, -0.00363605, -0.00006336, -0.00153506, 0.11698607, 0.07854131, 0.00350501, 0.02617296, 0.06440441, 0.02530728, 0.03719393, 0.01745516, 0.00893583, 0.00054696, -0.00074326, -0.00240678, -0.01072173, 0.00022098, -0.00012849, -0.00007737, 0.00005813, -0.01712433, 0.00283524, 0.00025504, 0.00468486, 0.01847770, 0.00835341, -0.00638524, -0.00570575, 0.09035214, -0.00473087, -0.00198769, -0.00293890, 0.00434770, 0.01335388, 0.00913097, 0.01025856, 0.00227761, -0.00272764, 0.00262880, 0.00451018, 0.00137718, -0.00633463, -0.00066942, 0.00048971, 0.00113798, 0.00017801, 0.00006709, 0.00005541, -0.02259422, -0.00768383, 0.00060184, 0.00324448, 0.01311563, 0.00260201, -0.01609860, -0.01117031, 0.00023953, 0.06976435, 0.00321516, 0.13827778, 0.00702716, 0.00907700, 0.09290422, -0.00194913, 0.02891403, 0.04168433, 0.06720629, 0.00469423, -0.00225336, -0.00239214, 0.00099140, 0.00057389, 0.00301248, 0.00008064, 0.00002419, 0.00011554, -0.01183047, 0.00050938, 0.00113160, 0.00667222, -0.01341489, -0.00189522, -0.00381487, -0.00506903, -0.00340094, -0.00596920, 0.00801129, 0.00452966, 0.07058241, 0.24509722, 0.14583577, 0.11977759, -0.00385663, 0.11731707, 0.00658191, 0.05343839, -0.00462336, 0.00590173, 0.00996322, 0.00045637, 0.00381115, 0.00000205, -0.00016450, 0.00002650, 0.00184621, 0.00045374, 0.00074673, 0.00377323, 0.00260414, 0.00098965, 0.00066043, -0.00376325, -0.00398305, -0.00904786, 0.03919894, 0.01117450, 0.00352009, 0.00045581, 0.00374173, 0.00256381, 0.04161157, 0.10644447, 0.09041160, 0.00219211, 0.00096472, -0.00089093, 0.01183388, -0.00991404, -0.02404453, 0.00000972, 0.00013263, 0.00047325, 0.00280257, 0.00042884, -0.00727355, -0.00246663, 0.00033386, -0.00211353, 0.00083766, -0.00050982, -0.00974905, -0.00528000, 0.00440268, 0.00778769, -0.08091579, -0.14416504, -0.00243697, -0.00095745, -0.01461045, -0.00240694, 0.00245698, 0.00218933, 0.00251327, -0.00015980, 0.00297423, -0.01100399, -0.01279276, 0.00000079, -0.00001343, 0.00008933, 0.00265794, 0.00049022, -0.00247113, 0.00124454, 0.00339131, -0.00028140, -0.00568109, 0.00231967, -0.00351286, 0.00450965, 0.00873810, -0.10522635, -0.18350011, -0.27514997, -0.11021638, -0.00794521, -0.01645789, -0.01760394, -0.00364704, -0.07837475, -0.00491300, 0.00195406, 0.09588713, -0.00038526, 0.01665502, 0.00596751, -0.00003486, -0.00031440, 0.00086008, -0.00263038, 0.01582762, 0.00108965, 0.01128807, 0.00335104, -0.00403228, 0.05261887, 0.00272578, -0.03135102, -0.03397330, -0.18399961, -0.10789290, -0.20197912, -0.13228306, -0.10561641, -0.10160153, -0.09961602, 0.00033448, -0.10567826, -0.03498352, -0.00241197, 0.00399222, 0.00016700, 0.02411747, 0.00002121, 0.00033244, -0.00001210, 0.00020338, -0.00153286, 0.04827457, -0.00518006, -0.00034333, 0.00926350, 0.00442096, 0.03682666, -0.00441933, -0.16105416, -0.29269749, -0.18983091, 0.00013045, -0.02279917, -0.06400406, -0.04610007, -0.09260020, -0.05495540, -0.09030659, -0.00450372, -0.00283905, -0.04227535, 0.00007713, 0.00054795, 0.00019362, 0.00006717, 0.00005987, -0.00002679, 0.00032383, 0.00021710, 0.01079914, -0.00507745, -0.00552360, 0.00520888, 0.00566219, -0.00757069, -0.26059309, -0.21373677, -0.15752500, -0.00302185, -0.00270332, -0.05925268, -0.13428806, -0.15388218, -0.00866343, -0.13766626, -0.00307815, -0.00540977, -0.00125698, -0.01044893, -0.00270187, -0.00500080, 0.00026678, 0.00018776, -0.00001898, 0.00012440, -0.00000117, -0.00851762, 0.00375022, -0.00637920, -0.05323582, -0.00081889, 0.00482681, -0.08978859, -0.07881042, -0.00708117, -0.17361940, -0.12762232, -0.05864132, -0.07008278, 0.00176584, -0.12012843, -0.12981613, -0.16389789, -0.01294491, -0.00513755, -0.00387540, -0.00345902, -0.00392715, -0.02667236, 0.00000284, -0.00010282, 0.00007537, 0.00016928, 0.00005732, -0.00106601, -0.00229032, -0.00454793, -0.00115571, -0.00534225, -0.00047187, -0.01839860, -0.10411956, -0.09762827, -0.06823525, 0.00201765, -0.00483787, 0.00284947, 0.00195146, -0.10372468, -0.00312409, -0.01268791, -0.01168449, -0.00551663, -0.00938119, -0.10163909, -0.00612348, -0.00462400, 0.00027259, -0.00001929, -0.00019924, -0.00000293, -0.00000800, 0.00683146, -0.00553783, -0.00602669, 0.00102423, 0.00580674, 0.00068442, 0.00032010, -0.00395421, -0.12336688, -0.14403732, -0.10599362, -0.00846180, -0.00879017, -0.13675022, -0.00590316, 0.00092453, 0.00472675, 0.00039510, -0.00401628, -0.01285174, -0.00584798, -0.00340275, -0.00038514, 0.00245127, 0.00025725, -0.00028240, -0.00000217, 0.00008621, 0.00658845, -0.01287237, -0.00890152, -0.00174137, 0.01533112, 0.01582378, 0.00628320, -0.00338051, -0.09592313, -0.24240935, -0.22656927, -0.07144556, -0.09962326, -0.00562874, 0.01176337, 0.01937691, 0.00713192, 0.00023971, 0.00283745, 0.00371780, 0.00016152, -0.02994882, -0.00715090, 0.00051277, 0.00000725, -0.00013486, 0.00000621, 0.00028376, 0.00067412, -0.00204893, -0.01056855, -0.00315420, 0.00084501, 0.00969926, 0.00201641, -0.00416454, 0.00305030, 0.00490269, -0.01413959, -0.00382706, -0.00342248, 0.00806733, 0.02263423, 0.01028018, 0.00742122, 0.17653242, -0.00206410, -0.00312150, -0.00687942, -0.00550943, -0.00153371, 0.00052833, -0.00002717, -0.00020094, 0.00000322, 0.00019504, -0.00585259, 0.00195795, -0.00802826, 0.05565015, 0.08878258, 0.01184527, 0.10157719, -0.00147163, 0.09136041, 0.10383556, 0.00822910, -0.00044965, 0.00446663, 0.05222061, 0.01473877, 0.00221449, 0.03468326, 0.01743101, -0.00624762, -0.00288839, -0.00398010, -0.00482248, 0.00049501, 0.00062769, 0.00021544, -0.00013531, 0.00000887, 0.00176941, 0.10462517, -0.00204489, -0.00457380, -0.00179572, 0.00105424, 0.04797509, 0.03697318, 0.09741998, 0.16631629, 0.14324129, 0.11618081, 0.16009043, 0.12228028, 0.12633587, 0.00002528, 0.00060103, 0.00353538, -0.00880137, -0.01245429, -0.00092613, 0.00648921, 0.00083955, 0.00367276, 0.00023257, 0.00001009, -0.00006876, -0.00003365, 0.00003176, -0.00282278, 0.00031433, 0.06010430, -0.00212491, -0.00203365, 0.05934558, 0.18443495, 0.09606452, 0.14662401, 0.07974111, 0.03145805, 0.06418866, 0.05335234, 0.09702157, 0.11914989, -0.00176848, 0.00032685, -0.00895648, -0.00453469, 0.05312818, 0.02107966, 0.00148508, 0.00285169, 0.00007971, 0.00001279, 0.00002293, 0.00030120, 0.00003335, -0.00322572, -0.00243410, -0.00085711, 0.00989446, 0.00299407, 0.00267077, 0.12611467, 0.04720808, 0.06705837, 0.04968522, 0.00373079, 0.23349650, 0.04152289, 0.02033493, 0.12789842, -0.00454697, -0.00825955, -0.00141403, 0.00404040, 0.00336284, -0.00794531, -0.01876748, 0.00007331, 0.00004377, 0.00026803, -0.00007911, 0.00020525, 0.00000012, 0.00013702, 0.00540448, -0.00589405, -0.00200237, 0.05305569, 0.08907304, 0.02152291, 0.02264869, 0.00256809, 0.01820168, -0.00298534, 0.07053830, 0.01357118, 0.06711744, 0.12362073, -0.01582296, -0.01732233, -0.00206855, 0.00057451, -0.00112063, -0.00574959, 0.00425273, 0.00002100, -0.00004332, -0.00019450, -0.00016237, -0.00000223, -0.00002081, -0.00000770, -0.01227283, -0.01277966, -0.02399760, 0.00643253, 0.00971756, 0.00823410, 0.00916919, 0.00563140, 0.07112072, 0.00520328, 0.00652976, -0.04209549, 0.00059405, 0.00315750, -0.00414163, 0.00020283, -0.00483948, 0.02107930, 0.00009461, -0.00468946, 0.00005475, 0.00003213, 0.00003512, 0.00016184, -0.00032047, -0.00017538, -0.00016197, 0.00022184, -0.01828622, -0.00801082, -0.00231060, -0.00010244, 0.00103358, 0.00292884, 0.00971147, -0.00699023, -0.00015719, 0.00101774, 0.01194393, 0.01750044, 0.02127503, 0.09916791, -0.00529650, -0.00117543, 0.00058798, 0.02647994, 0.00001609, -0.01098330, -0.00002596, 0.00021770, 0.00052390, -0.00004456, -0.00006485, -0.00006900, -0.00034003, -0.00011240, 0.00002544, 0.00023756, -0.00000121, -0.00000679, 0.00008115, 0.00018984, 0.00090256, 0.00061441, 0.00320584, 0.00291550, 0.00158536, 0.01851166, 0.00074414, 0.00032910, 0.00037994, 0.00008172, 0.00061377, 0.00006967, -0.00093081, 0.00017459, -0.00018366, 0.00011910, 0.00009790, 0.00020863, 0.00013012, -0.00024059, 0.00020535, 0.00013450, 0.00005057, 0.00006286, 0.00014534, -0.00014201, -0.00013023, -0.00015174, 0.00006883, 0.00012130, -0.00015221, 0.00009389, 0.00027184, -0.00021588, 0.00010843, 0.00000612, 0.00016173, -0.00008805, 0.00005664, -0.00006900, 0.00011049, -0.00001301, 0.00000018, 0.00008290, 0.00014902, -0.00023976, 0.00029562, -0.00020857, 0.00011245, -0.00000368, 0.00034572, 0.00256937, 0.00273665, -0.00013447, -0.00017237, -0.00000386, -0.00017534, -0.00030687, 0.00055110, 0.00039822, 0.00013336, 0.00081971, 0.00210026, -0.00236612, 0.00006034, 0.00025585, 0.00007187, 0.00001717, 0.00000949, -0.00004020, 0.00001962, -0.00003877, 0.00017154, 0.00004686, -0.00002829, 0.00008553, -0.00003705, -0.00000458, -0.00022301, 0.00003606, 0.00007714, -0.00000896, -0.00017877, -0.00009797, 0.00038784, 0.00023211, 0.00020700, 0.00081584, 0.00807716, 0.00363285, 0.00672484, 0.01089099, -0.00272964, -0.01226339, 0.00053601, 0.00208277, 0.00020404, -0.00030133, -0.00005286, 0.00014391, 0.00006927, 0.00002848, -0.00015009, -0.00014964, -0.00030864, 0.00003029, -0.00002151, -0.00299323, -0.00235670, -0.00216998, -0.00270922, -0.00408088, -0.00603507, 0.00231873, -0.00285660, 0.01333676, 0.00010951, 0.01774654, 0.13765231, -0.00908855, -0.00180715, 0.00724210, 0.00771384, 0.00212143, -0.00091333, 0.00207497, -0.00014416, -0.00001706, 0.00009821, 0.00013985, -0.00019847, -0.00041265, 0.00012021, 0.01019600, 0.00005569, -0.00303680, -0.00098244, 0.00724666, 0.00773896, 0.00034758, -0.00832597, -0.00291267, 0.00071018, -0.00036926, 0.02829508, 0.01222852, 0.13986388, 0.02957023, 0.00674808, -0.00069556, -0.00269171, -0.02178408, 0.00049465, -0.04499387, -0.02292685, -0.05555711, -0.00008568, -0.00001087, -0.00030339, -0.00004630, -0.00000880, 0.02622883, 0.00451067, -0.00362882, 0.00578158, 0.00893397, 0.00774731, 0.00311511, -0.00303223, -0.01237039, 0.00286559, 0.00031179, 0.00178686, 0.10721195, 0.12114131, 0.06861088, 0.11467655, 0.10011917, -0.00513145, -0.00231756, -0.00028596, -0.04181849, -0.02939894, 0.00041279, -0.00015822, -0.00002491, 0.00012834, -0.00005937, 0.00012889, 0.00995047, 0.00090368, -0.01093349, -0.00641692, -0.00693620, -0.03625107, -0.01136391, -0.00080856, 0.00450457, 0.00020712, -0.00562938, -0.00489441, -0.00865372, 0.00580861, 0.02659766, 0.12820417, 0.02711060, -0.00183991, 0.00242629, 0.00202645, -0.03522247, -0.19898166, 0.00359311, -0.00414154, 0.00005359, 0.00004219, 0.00008965, 0.01249955, -0.00047296, -0.00120673, -0.01647621, -0.01246473, -0.00681045, -0.00200335, -0.00302302, 0.00209602, 0.00077900, -0.00564885, -0.01461271, -0.13606764, -0.00264270, -0.00294440, 0.00199609, 0.07605954, 0.00532003, -0.00040030, 0.00098279, 0.00342746, -0.00541006, -0.06057831, 0.00545697, -0.01337027, 0.00010309, -0.00001045, -0.00004828, 0.00037085, -0.00099986, -0.00137594, -0.01303636, -0.00991779, 0.00170489, 0.00327692, 0.00619867, 0.00306129, -0.00838775, -0.02632741, -0.07691438, -0.05659193, -0.00923774, -0.00153214, 0.00348939, 0.01513931, 0.30717653, 0.00930771, 0.00392888, 0.00226379, -0.00259160, -0.14772123, -0.00084584, -0.01176629, -0.00031945, 0.00009132, -0.00003894, 0.00037507, 0.00022377, -0.00061086, -0.01181311, -0.00060492, -0.00097729, 0.00229649, 0.00081705, -0.05600238, -0.14452882, -0.14089702, -0.01554204, -0.01656373, -0.03537414, -0.00586492, -0.00211715, -0.00178605, 0.15863600, 0.11632243, 0.00788978, 0.00384708, -0.00154835, -0.05393637, -0.03637339, -0.00246091, -0.01620990, 0.00001618, 0.00000012, 0.00034517, -0.00049588, -0.03156805, -0.00804764, -0.00101440, -0.00556745, -0.00059557, -0.04406994, -0.09074724, -0.00062952, -0.00223766, -0.00138461, 0.00269300, -0.02369740, -0.03231361, 0.00540318, -0.00348045, 0.00067279, 0.06939872, 0.03130823, 0.01925177, 0.00027935, -0.08798065, -0.00000643, -0.00003985, -0.00000147, -0.00012569, -0.00002798, 0.00020471, 0.00246868, -0.00557590, -0.00417151, 0.00882902, 0.00298167, 0.00617658, 0.01019958, 0.00540063, 0.00725654, 0.01019331, 0.00872116, 0.00592031, -0.00407235, -0.02397124, -0.14715727, -0.02990753, 0.00431979, 0.10611543, 0.06296391, 0.01294301, -0.00372208, -0.00571535, 0.00341010, -0.01037910, -0.00005256, -0.00023472, -0.00007707, -0.00211051, -0.00119347, 0.00206940, 0.00514257, 0.05126676, 0.00443256, 0.00679855, 0.00831352, 0.01289062, 0.01987721, 0.00924448, 0.00255208, -0.00249402, -0.10736486, -0.24299891, -0.22515617, 0.00748049, 0.08066044, 0.00677762, 0.01475437, 0.12008128, 0.07732958, 0.01302233, -0.00067968, -0.01109896, -0.01540400, 0.00018261, 0.00000432, 0.00007112, 0.00029095, 0.04655164, 0.00632301, 0.03382104, 0.00627659, 0.00443521, 0.00238294, 0.05961513, 0.00263844, -0.00494017, 0.00121366, 0.00185585, -0.12631018, -0.10735589, -0.00410821, 0.01165175, 0.05167777, 0.05051802, 0.23593381, 0.03186383, 0.00126916, 0.01915053, -0.03031905, -0.00694471, 0.00611568, 0.00003485, -0.00006784, 0.00008232, -0.05199675, 0.00808571, 0.10502178, -0.00039162, -0.00159119, 0.00268472, -0.00164820, -0.00526071, 0.00463030, -0.00103788, 0.00051550, 0.00213080, -0.07775646, -0.00187912, 0.00591124, 0.02149474, 0.05594385, 0.13601169, 0.17090692, 0.01191030, -0.00276000, -0.00101142, 0.00197859, -0.00009033, -0.00010442, -0.00036933, 0.00000144, -0.00023605, 0.00473815, 0.00251135, 0.01498114, 0.00222580, 0.01255945, 0.07875191, 0.20404689, 0.00559976, -0.00005816, -0.00156464, 0.00082502, -0.00459354, -0.04049871, -0.01127261, -0.00439317, 0.11781655, 0.16399495, 0.07243302, 0.01012817, 0.03377542, 0.00099310, 0.00257884, -0.01699459, 0.00133469, -0.00002061, 0.00006214, -0.00036813, -0.00000809, 0.00501871, 0.01944616, 0.01287311, 0.00149126, 0.10531083, 0.01212442, 0.19682384, 0.01375054, 0.00399260, 0.00210414, 0.00045230, -0.00375377, -0.00556582, 0.00239508, 0.01717208, -0.00395345, -0.00295029, 0.00522464, 0.00901505, 0.00673535, -0.00138139, -0.00011595, -0.02297206, 0.01473349, 0.00388664, -0.00001598, -0.00000758, -0.00002289, 0.00489743, 0.02634110, 0.00714334, 0.00045439, -0.00265760, -0.00274337, 0.08400197, 0.01358941, 0.00650869, 0.00669757, 0.00655505, 0.00065750, -0.00268368, 0.00506690, 0.03025186, -0.00259850, -0.00438583, -0.00229116, 0.00812256, 0.00653531, -0.00272494, -0.00627143, -0.00657660, 0.00002110, 0.00896980, 0.00016397, -0.00005862, 0.00021446, 0.00038576, -0.00389606, -0.01764658, 0.00089078, 0.03106640, 0.14394364, 0.13659811, 0.00549858, -0.00953562, 0.00635154, 0.00753540, -0.00065473, -0.00026753, 0.00097884, 0.04231862, 0.07558565, 0.00426474, 0.00034040, 0.00433727, 0.00089254, -0.00997892, -0.00807963, -0.00615592, 0.00663352, 0.00738563, -0.00009583, 0.00016471, -0.02285063, 0.00108827, -0.02843925, -0.00595016, 0.00024996, 0.00695613, 0.00337344, 0.00916414, 0.03742351, 0.00951943, 0.00344261, 0.00767919, 0.01456546, 0.01359848, 0.00316484, 0.00254243, 0.00036964, 0.01485546, 0.00328431, 0.00901546, -0.00458349, -0.01300011, -0.00356297, -0.00664453, 0.02113344, 0.02417897, 0.00024425, -0.00000083, 0.00190390, -0.00040975, -0.01767833, 0.00240865, 0.00536662, 0.11774378, 0.00178027, 0.00722530, 0.05501472, 0.00724004, 0.00730229, 0.00424386, 0.00696124, 0.00251185, -0.00131177, -0.00115600, -0.00315050, 0.00434281, 0.00270185, -0.01378113, -0.02870227, -0.01916664, -0.00984369, -0.01361144, -0.00005115, 0.00014655, -0.00024107, -0.00002233, 0.00340332, 0.12768379, -0.01059474, -0.00044798, 0.01001288, 0.04598902, 0.00252115, -0.00250586, 0.00232736, 0.00825746, 0.04203430, -0.00629874, -0.01061812, -0.06824794, -0.00542504, -0.00410923, -0.00084092, 0.00004650, 0.00121778, -0.01265332, 0.00368054, -0.02053176, -0.01567535, -0.02821924, -0.00003481, -0.00002127, -0.00028165, -0.00010647, -0.00003323, 0.00007725, -0.01228776, 0.00234216, 0.14486609, 0.00444599, -0.00056338, 0.00157754, 0.00083632, -0.00884386, -0.01187862, -0.01504641, -0.12451217, -0.01362428, -0.00589938, -0.00205657, -0.00343191, 0.00309755, 0.00890271, 0.01293926, 0.01392580, -0.00828184, -0.02064426, -0.03335707, 0.00000078, -0.00007126, 0.00024496, -0.00004327, -0.00006427, -0.00022162, -0.13746223, -0.00349037, -0.00379587, 0.00338515, 0.00630764, 0.00045725, -0.01168104, -0.00356638, -0.00372204, -0.00387692, -0.00572204, -0.00363161, -0.00350946, -0.00389100, -0.00108189, 0.00839004, 0.01375106, 0.00726973, 0.02365514, -0.00778793, -0.01093481, -0.02680185, -0.00000098, 0.00007829, 0.00009079, -0.00020584, -0.00002495, -0.00003634, 0.00279820, -0.01186071, 0.00723280, 0.00465732, 0.00037023, -0.01480630, -0.02125363, -0.00561799, -0.00449281, -0.01012015, -0.02844420, -0.00342612, -0.00455578, -0.00474278, 0.00103478, 0.00917124, 0.00728450, -0.01485778, 0.00029955, 0.00009415, -0.00307815, -0.00022427, -0.00001863, -0.00001270, -0.00005986, -0.00004586, -0.00014372, -0.00002657, -0.01748140, 0.00111767, 0.00656755, 0.01193873, 0.00932441, 0.00729339, 0.00905719, 0.00660338, 0.00041738, -0.07513314, -0.00266234, -0.00355597, -0.01061781, -0.00474967, -0.00010015, 0.00498065, 0.00377919, -0.00555995, -0.03504972, -0.03062272, -0.03084483, 0.00000099, 0.00013453, 0.00005147, 0.00001605, 0.00005368, -0.00018363, -0.00001381, 0.00614337, 0.01732532, 0.01003664, 0.00538848, -0.00058515, -0.00171277, -0.00063989, 0.00156848, 0.00364478, 0.00060370, 0.01459094, 0.00036436, -0.00062832, -0.00095969, -0.01220802, -0.00767455, -0.00420946, 0.00312199, -0.00000839, -0.00003321, -0.00002346, -0.00005675, 0.00001016, 0.00002215, -0.00032133, 0.00014904, -0.00010480, 0.00014108, -0.01968967, -0.01389236, 0.00066974, -0.00011584, -0.00030010, -0.00000087, -0.00007638, 0.00054778, 0.00018555, 0.00027579, 0.01949195, 0.02021751, -0.00009005, -0.00035602, -0.00011138, -0.00003000, -0.00000336, -0.00004413, -0.00006095, -0.00004729, 0.00034718, -0.00012966, -0.00014174, 0.00005423, -0.00026521, -0.00005460, -0.00006529, 0.00001924, -0.00018400, -0.00012075, -0.00023704, -0.00000980, 0.00006397, -0.00007222, -0.00004824, 0.00003017, -0.00022252, -0.00005167, 0.00008986, -0.00007810, 0.00021081, -0.00009951, 0.00007093, -0.00008726, -0.00022210, -0.00000061, -0.00013148, 0.00055495, 0.00010257, -0.00000395, -0.00007516, 0.00000701, -0.00015167, 0.00018362, -0.00008127, -0.00013641, 0.00012137, -0.00000465, 0.00003094, 0.00004876, 0.00002249, 0.00011037, 0.00003448, 0.00048686, -0.00099928, 0.00003332, 0.00002826, 0.00021022, 0.00010280, 0.00000603, 0.00000482, 0.00006052, 0.00001969, -0.00012654, -0.00020006, -0.00011115, -0.00014572, 0.00034771, -0.00022642, 0.00020955, -0.00010452, -0.00019503, 0.00004426, 0.00002946, -0.00004543, 0.00003857, 0.00002705, 0.00005955, 0.00027194, -0.00022622, -0.00000249, -0.00107438, -0.00076013, -0.00078976, -0.00047024, -0.00044910, 0.00269428, 0.00016942, 0.00026713, 0.00283102, 0.00232906, 0.00054608, 0.00080830, 0.00029556, -0.00004551, 0.00014133, -0.00005487, -0.00012317, 0.00010260, 0.00005849, 0.00014112, 0.00002404, 0.00001524, -0.01725876, -0.00627512, -0.00504189, -0.00142968, 0.01698015, -0.00061222, -0.00370045, -0.00421587, -0.00054338, 0.00175360, -0.00044220, 0.00022891, 0.00319047, 0.00468721, 0.00933185, 0.00567958, 0.00217403, 0.00007445, 0.00457917, 0.00230721, -0.01198621, -0.00000309, 0.00017361, 0.00014013, -0.00028826, 0.00003103, 0.00999502, 0.00567884, -0.00837366, -0.00175064, -0.00055861, 0.00008661, 0.01385751, 0.01593875, 0.00584793, -0.00615706, 0.00486978, 0.03284076, 0.00223917, 0.00039347, -0.00280863, -0.02372696, -0.00480022, 0.00059160, 0.00090021, -0.00732224, -0.00079207, 0.00172399, 0.00264733, -0.00030402, 0.00013429, 0.00010521, 0.00000728, 0.00001479, 0.02509583, 0.01555531, 0.00361171, 0.00041272, -0.00124932, -0.00032747, 0.00551299, 0.07481304, 0.00276542, 0.00023592, 0.00223681, 0.00643436, 0.00063275, -0.03481887, -0.01150012, -0.01212058, -0.01596363, -0.01268507, -0.00360431, -0.00185140, -0.00304632, -0.00096207, 0.00233630, -0.01339678, -0.00190801, 0.00005372, -0.00000238, -0.00000599, 0.00130869, -0.00827827, -0.00687753, -0.00921944, -0.00499631, 0.00414634, 0.00084171, 0.00170440, -0.00035905, 0.05015296, 0.00095679, 0.00164911, -0.06232845, -0.04005276, 0.00570785, 0.00587600, 0.00117557, -0.01493901, -0.01420467, -0.00096006, -0.00019013, -0.00679807, -0.00680478, -0.01470084, -0.00004520, 0.00003326, -0.00000906, 0.00016250, -0.02236206, -0.01687205, -0.10151877, -0.00928470, -0.00373877, 0.00476450, 0.01102484, 0.00659563, 0.09931637, 0.01957607, 0.01461432, 0.00078135, -0.01770109, 0.00270091, 0.00314981, 0.00518267, -0.00670483, -0.05683247, -0.00306910, -0.00143101, -0.00088334, 0.03879207, -0.00041606, 0.00099293, -0.00005084, 0.01667310, 0.00010157, 0.00066668, -0.00063428, -0.02829876, -0.05068149, -0.00681068, -0.00337279, -0.00161788, 0.02018874, 0.04768313, 0.17065258, 0.09703555, 0.00246256, 0.00803520, 0.00611062, 0.01484357, 0.01682270, 0.00943906, 0.00052136, -0.00160680, -0.00451772, -0.00242004, 0.03613175, 0.00582541, 0.00098140, -0.00125188, 0.00000035, 0.00031525, -0.00000504, -0.00000920, -0.00023407, -0.02474300, -0.03080388, -0.00617267, -0.00503812, -0.00424046, -0.00016005, -0.00053187, 0.00362306, -0.00308337, -0.00245289, 0.01415257, 0.00037651, -0.04211374, 0.00693442, 0.03355481, 0.08804384, 0.05717672, 0.00883625, 0.00350289, 0.06074347, 0.00472910, 0.01766141, 0.00799274, -0.01217010, 0.00007832, 0.00001771, -0.00024295, -0.00053840, -0.00084526, -0.00386554, -0.02284616, 0.00184607, 0.00390915, -0.10047936, -0.00683458, -0.00112110, -0.00060402, -0.00057539, -0.00175409, 0.00106649, -0.08397964, 0.01301881, 0.18503538, 0.04568277, -0.00079821, 0.05112429, 0.05859955, 0.17445295, 0.00365418, -0.04578108, 0.00209923, 0.00000226, -0.00009730, 0.00021554, 0.00047625, -0.00045127, -0.08914258, -0.00136982, -0.00229817, 0.00385949, -0.01514712, -0.00443168, -0.06971323, -0.00531856, 0.00419443, 0.00557331, 0.00676457, -0.19578788, -0.15313600, 0.00886248, 0.10907417, 0.03444642, 0.01654387, 0.04225612, 0.03554128, 0.00636956, -0.00359584, 0.00009400, -0.01438414, -0.00000777, -0.00016471, -0.00015057, 0.00042032, -0.00030552, 0.00345140, 0.00514481, 0.00134885, 0.00013117, -0.00096854, -0.00342787, 0.00456835, 0.00711494, 0.09984208, 0.00903844, 0.00085249, -0.24561365, -0.00823252, 0.00458178, 0.01975479, 0.00143843, 0.08795793, 0.01377600, 0.00316590, 0.00122977, 0.00111232, 0.00154332, 0.00221458, 0.05377819, -0.00022630, -0.00005997, 0.00019648, 0.00010034, 0.01213277, -0.01785688, 0.00356062, 0.00060155, 0.00567328, 0.02669546, 0.01187703, 0.08001174, 0.07699483, 0.00032767, -0.12880771, -0.13921705, -0.01970525, 0.04283350, 0.00556519, -0.00857125, -0.00340388, -0.00049445, 0.00284941, -0.00060474, -0.00236927, 0.00112928, 0.00447164, 0.00505937, -0.00006538, 0.00004715, 0.00016750, -0.02491170, 0.00679106, 0.01084793, 0.01101056, 0.01687691, 0.02057851, 0.01194689, 0.06739012, 0.00367308, -0.00312228, -0.04020523, -0.05261923, -0.19832656, -0.00370503, 0.11274845, -0.00704347, -0.02792737, -0.01370243, -0.03948243, 0.00287989, -0.00005216, -0.00426239, -0.00007741, -0.00001746, -0.00000124, -0.00000040, -0.00030615, -0.00000428, -0.00305663, -0.04917349, 0.00612913, 0.00249605, 0.03041252, 0.00930509, 0.10612436, 0.07576340, 0.00352946, -0.00812301, -0.12495452, -0.06761759, -0.01048261, -0.00529022, 0.00020491, -0.00914053, -0.02310893, -0.12591772, -0.04450411, -0.00009381, -0.00187142, 0.00152771, 0.00064448, -0.00014444, 0.00020952, 0.00001001, -0.00001132, -0.00058009, -0.02949937, 0.01323798, -0.01315645, -0.00342145, -0.00111774, 0.01380931, 0.09094528, 0.12059178, -0.00365184, -0.15356192, -0.16811931, -0.05596941, -0.01033590, -0.01008163, -0.00094299, -0.12131939, -0.00841126, -0.02394566, 0.03065125, 0.00535818, -0.00211786, -0.00436492, 0.00080556, 0.00035228, -0.00584951, -0.00002326, -0.00693839, -0.00110801, 0.00119501, 0.11334331, 0.00121047, -0.00271416, 0.00028774, 0.09628215, 0.14735016, 0.07037151, -0.00047924, -0.22255747, -0.06097994, -0.00400465, -0.00966636, -0.00605502, -0.00073116, -0.00200505, -0.00099363, -0.00016228, 0.05200147, 0.00409562, 0.00419303, -0.00001446, 0.00082561, 0.00407015, -0.01154710, 0.00864662, -0.01167092, -0.00575844, -0.00778973, 0.06386276, 0.00960042, 0.00460468, 0.00838565, 0.02375411, 0.14832738, 0.01010512, -0.04730118, -0.08321520, -0.14858080, -0.00149692, -0.00982954, -0.00282574, -0.00365015, -0.00390630, -0.00954955, -0.00233217, 0.00898429, 0.00746583, 0.01059831, 0.00447601, 0.00096071, 0.00059099, -0.00002286, 0.00013142, 0.00000115, 0.00105916, 0.00168738, 0.00383469, 0.02429246, 0.00971420, 0.00442278, 0.17956978, 0.21326321, -0.05735822, -0.39734700, -0.08472906, -0.00183167, -0.00107710, -0.01063449, -0.00383993, -0.00784298, -0.00770129, -0.00860738, 0.00137520, 0.00831103, 0.01819344, 0.00628136, 0.00019911, 0.00074121, 0.00025804, -0.00000003, 0.00000748, -0.00000333, 0.00110566, -0.00052438, 0.00063013, 0.00575313, 0.00386532, 0.21741794, 0.20166145, 0.00951887, -0.04182426, -0.17580386, -0.00033689, -0.00672207, -0.01153231, -0.01403598, -0.01037818, -0.06325931, -0.00596643, -0.00265819, 0.00736337, 0.01220552, 0.00792959, 0.00353705, 0.00135624, -0.00430506, 0.00092580, 0.00012759, 0.00017835, 0.00000708, 0.02285160, 0.00606488, 0.00039284, 0.02683931, 0.05977152, 0.09586005, 0.00293644, 0.00355071, 0.00217122, 0.02198765, -0.00114473, -0.00754917, -0.09201587, -0.00621856, -0.00413196, 0.00012437, -0.00164046, -0.00045372, 0.00557996, 0.11076609, 0.01281646, 0.00390810, 0.00914210, 0.00445325, 0.01735726, -0.00004096, 0.00004778, -0.00000255, 0.00000101, -0.00075104, -0.00051842, 0.00275741, 0.14839700, 0.11468177, 0.03942841, -0.00030680, 0.06339824, 0.03293010, 0.00023726, -0.00474930, -0.09551339, -0.02764328, -0.00292413, -0.00133393, -0.00070849, -0.00199935, 0.00893529, 0.02873835, -0.00163902, 0.00094687, 0.00542826, -0.00560024, 0.00000059, 0.00007135, -0.00000625, 0.00014729, 0.00006768, -0.02281244, -0.01266676, -0.00964303, 0.00848371, 0.13161466, 0.00118967, -0.00041704, 0.00831208, 0.00430873, 0.00137096, -0.10257171, -0.05939931, -0.02300413, -0.08937179, 0.00437716, -0.05089392, -0.00339201, -0.00066903, -0.00291133, -0.01717155, -0.00281800, 0.00373156, 0.00003903, -0.00001256, -0.00009164, 0.00000209, -0.00016892, 0.00000350, -0.00719790, -0.05390414, -0.00555554, 0.05314364, 0.08798004, 0.11729095, 0.00290012, 0.00506174, 0.00097689, 0.00204418, 0.00808066, 0.00255286, -0.03149059, -0.02673275, -0.00214063, 0.00102664, -0.00948216, -0.06149761, -0.07976458, -0.02151087, -0.00206648, 0.01783703, 0.01549679, 0.00011028, 0.00014414, -0.00024362, 0.00002258, -0.00000333, 0.01610002, 0.00316593, -0.00322356, 0.00375393, 0.00541110, 0.01565986, 0.00727149, 0.00191144, -0.00383587, -0.00151608, -0.00303929, -0.00102850, 0.00068529, -0.00489928, 0.00588033, 0.00020546, -0.02492452, -0.00392958, 0.00237443, -0.00040755, 0.01225040, 0.02769031, -0.00004308, 0.00011498, 0.00009710, 0.00011133, -0.00008517, 0.00030693, -0.00020398, 0.00000267, -0.11649625, 0.00054519, -0.00114935, 0.00352004, 0.00948352, 0.00022181, -0.07229093, -0.00306715, 0.00491845, -0.00194813, -0.00091556, -0.01166545, -0.00299174, -0.00466179, 0.00123199, -0.02579966, -0.00124491, 0.00003551, -0.00001906, 0.00001458, -0.00006894, 0.00023219, -0.00003212, -0.00036219, 0.00019754, 0.00023443, -0.00005151, 0.00003559, 0.00003313, -0.00004531, -0.00002567, 0.00005416, 0.00015065, -0.00896143, -0.01997379, -0.00003363, -0.00672853, -0.00518331, -0.01112059, 0.00027795, 0.01485331, 0.00518565, 0.00000405, 0.00001529, 0.03290876, -0.00000262, 0.00001186, -0.00005581, -0.00025349, -0.00000562, 0.00002145, 0.00013697, 0.00031626, -0.00016984, -0.00008629, 0.00008996, 0.00035466, -0.00003048, 0.00024202, 0.00008770, 0.00028679, -0.00021668, -0.00009028, 0.00001432, 0.00012532, -0.00039309, -0.00024568, -0.00012039, 0.00006449, 0.00009170, 0.00018453, 0.00012708, 0.00004772, -0.00001696, -0.00011492, -0.00001997, -0.00002814, -0.00009072, -0.00015712, 0.00017655, 0.00017351, 0.00011706, 0.00018366, 0.00019378, 0.00020606, -0.00003033, -0.00011800, 0.00007191, -0.00010336, 0.00044384, -0.00205052, 0.00009624, -0.00232101, -0.00256019, -0.00228236, -0.00160774, -0.00100707, 0.00031763, -0.00009400, -0.00015495, -0.00002175, -0.00003496, 0.00003216, -0.00007435, 0.00007100, 0.00009732, -0.00023063, -0.00003149, 0.00007446, 0.00009802, 0.00012606, -0.00000988, -0.00007169, 0.00012652, -0.00007649, -0.00084788, -0.00113871, -0.00155749, -0.00151089, -0.00098390, -0.01109632, 0.00003650, -0.00008543, -0.00067413, -0.00126333, -0.00883076, -0.02115564, -0.00613612, -0.00132217, -0.00179075, 0.00010301, -0.00010673, -0.00005418, 0.00015203, -0.00015878, -0.00018607, -0.00009366, -0.00006125, -0.00024984, 0.00003544, -0.00003820, -0.00037955, -0.00113746, -0.00025618, -0.00077566, -0.00108299, -0.00072763, 0.00380083, -0.00510153, -0.00460926, -0.00350738, -0.04692040, -0.10030561, -0.02095750, -0.01630333, -0.00870577, 0.00776727, -0.00000070, -0.01007163, -0.00351097, 0.00458968, -0.00000360, -0.00019652, 0.00000866, 0.00012272, 0.00003814, 0.00000117, -0.00024805, -0.00061630, -0.00043327, 0.00002063, 0.00008025, 0.00952239, -0.05726396, -0.03854461, -0.00590661, 0.00234073, 0.00851063, 0.00328021, -0.00074158, 0.00024741, 0.00125507, 0.00361453, 0.00831934, 0.00727025, -0.00350963, -0.00252732, 0.00066981, 0.00201743, 0.00529509, 0.00001118, 0.00029801, 0.00015211, 0.00000268, -0.00001591, -0.02073788, -0.01588372, -0.01564463, -0.00458871, 0.00082247, 0.03518201, 0.00652041, 0.09660485, 0.00944163, -0.00034660, 0.00212208, 0.00338670, 0.00216781, 0.00313057, 0.00047193, 0.00859430, 0.00396001, 0.00443379, 0.00202296, 0.00225756, 0.00567628, 0.00014701, 0.01336636, 0.01606060, 0.00005973, -0.00000601, -0.03081456, -0.01779814, -0.02202980, -0.00719861, -0.01838212, -0.00957598, -0.00349767, 0.01851540, 0.00772484, 0.00892473, 0.06815550, -0.00334963, -0.05143775, -0.04872582, -0.12611462, -0.00279228, -0.00487157, 0.00160537, 0.00596608, 0.10444915, 0.02103660, 0.00311486, 0.03141060, 0.04202780, 0.00574533, -0.00492509, 0.00023979, -0.00000513, -0.02191856, -0.00000788, -0.01527272, -0.00575930, -0.01503862, -0.00738842, -0.00433653, 0.00944446, 0.00805624, 0.00392186, 0.11496489, 0.00854005, 0.00025562, -0.00030511, 0.12186460, 0.02021795, 0.12463736, 0.08379689, 0.02986508, 0.17590384, 0.06796824, 0.02613007, -0.00098974, -0.00180085, 0.01999314, -0.00416594, -0.00493159, 0.00002119, -0.02691867, -0.02535597, -0.02171346, -0.08324486, -0.01076843, -0.01376587, -0.00667463, 0.05864378, 0.14196213, 0.10320724, 0.09597843, 0.12615532, 0.09072865, 0.15126400, 0.18585919, 0.18948914, 0.19365206, 0.28485054, 0.20803428, 0.17672533, 0.01450798, 0.15597828, 0.12907924, 0.00187497, 0.10175850, -0.00000754, 0.00010102, 0.00005403, -0.00109440, -0.01451099, -0.00632974, -0.01055872, -0.01301800, -0.01682311, -0.00952129, -0.00091720, 0.05731707, 0.09042855, 0.11111308, 0.14854762, 0.17632346, 0.07954865, 0.14773771, 0.10540716, 0.13312140, 0.06505442, 0.06387804, 0.03414385, 0.00810769, 0.04161728, 0.08852662, 0.04401655, -0.01314623, 0.00311778, 0.00014114, -0.00013258, -0.00104220, -0.00023909, -0.00269708, 0.00606606, -0.00914402, -0.04724514, -0.00584210, 0.00373202, 0.00573195, -0.00726024, -0.00616488, 0.04671017, 0.00073515, 0.00757325, 0.00859235, -0.01529493, 0.00581318, 0.00018061, 0.00052904, -0.00516157, -0.00658614, -0.01219122, 0.00198942, -0.00340889, -0.00088155, 0.00902186, -0.00016606, 0.00004967, -0.00063313, -0.00126882, -0.00718595, 0.00131835, -0.00549898, -0.00728018, -0.00267674, -0.00527252, -0.02826978, -0.01297725, -0.01155466, -0.00570787, -0.00071084, -0.08002160, 0.00219194, -0.20259467, -0.20940071, -0.06304923, -0.04176854, -0.11345330, -0.07139625, -0.04087261, -0.15385047, -0.00492788, -0.00014962, 0.00000010, 0.00017817, 0.00001197, -0.00074698, -0.03630036, -0.00063996, -0.00350778, -0.02445186, -0.00324931, -0.00156390, -0.00017071, -0.04310723, -0.01022278, -0.00210426, -0.00043814, -0.19210552, 0.00504454, -0.13819326, -0.20036826, -0.07437826, -0.10939284, -0.28504297, -0.10896213, -0.09623021, -0.30868509, -0.08947825, -0.00093458, -0.00018331, -0.01337875, -0.00003102, -0.00000933, -0.00015757, -0.04304971, 0.00122035, 0.00004931, -0.00371551, -0.00634064, 0.00113556, -0.00187695, 0.00021244, -0.01741358, -0.00801394, -0.07301722, 0.00765550, 0.00914785, 0.00338237, -0.00826357, -0.08776492, -0.07580646, -0.00422181, -0.07012114, -0.13000643, -0.21076825, -0.00384181, -0.00153129, 0.00031667, -0.00040818, -0.00004430, -0.00001222, -0.00000010, -0.00042009, -0.00555643, -0.01192127, 0.00465955, -0.00652997, -0.00957815, -0.02853631, 0.00403645, -0.04348700, -0.06505609, -0.03242188, 0.00291334, -0.01153570, -0.01182471, -0.06862526, -0.03196907, -0.06315960, -0.03499443, -0.06591170, -0.04214543, -0.00449191, -0.08009598, -0.00053069, 0.00176415, 0.00018173, -0.00005708, 0.00022034, 0.00000395, -0.00025426, -0.00728054, -0.02149404, 0.00057037, -0.00674785, -0.06089599, 0.00906424, 0.00273439, -0.05744953, -0.00210947, -0.00938796, -0.00403352, -0.00013441, -0.16063605, -0.06890512, -0.01078835, -0.15954402, -0.03759290, -0.00753266, -0.11695584, -0.00236369, -0.00194105, -0.00096493, -0.00023468, 0.00004154, 0.00001509, -0.00016826, 0.00001456, -0.00040082, -0.09839921, -0.06913560, -0.00025362, -0.00619395, -0.00467381, 0.00612293, 0.00613485, 0.00025201, 0.00336358, -0.04301582, 0.00530591, -0.00632287, -0.00531498, -0.00367063, -0.11931680, -0.11132721, -0.11277162, -0.01077372, -0.00748600, -0.00825090, -0.00984752, -0.00072169, -0.00075649, 0.00002422, 0.00004614, -0.00000226, -0.00000403, 0.04592669, -0.00234275, -0.00189206, -0.00155463, -0.00185928, -0.00290905, -0.00197279, 0.00449540, -0.00333593, 0.00255440, -0.04192886, 0.00580069, 0.00045674, -0.00272784, -0.00658515, -0.00513200, -0.02204483, -0.00211244, -0.00709938, -0.00933250, -0.01653118, -0.00799705, -0.00000249, 0.00127022, 0.00033864, 0.00004939, -0.00000016, -0.00293780, 0.00642949, 0.00704021, -0.00020085, 0.00593379, -0.00408004, -0.00580488, -0.00131041, -0.00159796, -0.00298637, 0.00482634, 0.00828115, 0.00790015, 0.00526146, -0.01239106, -0.00822937, -0.00487162, 0.00084840, 0.00197483, -0.00532988, -0.00785805, -0.12411954, -0.00527990, -0.05788342, -0.00070214, 0.00000664, -0.00018397, -0.00000035, -0.00841130, 0.00201913, 0.01314355, 0.00516872, 0.00460762, -0.00756169, -0.00285415, -0.00264451, 0.00014780, 0.00300602, 0.02328441, 0.01625846, 0.00879379, -0.00157273, -0.00878319, 0.00304111, 0.00776462, 0.00073370, -0.00652872, -0.00952381, -0.00380785, -0.00192227, -0.00177281, -0.00918636, -0.00004915, 0.00000977, -0.00003080, -0.00000139, -0.00021444, -0.00231906, 0.00578610, 0.00491764, 0.02772179, 0.00351438, 0.00036852, -0.00033744, 0.00134944, 0.00252443, 0.02342870, 0.00517116, -0.00068913, 0.00060511, 0.00079576, 0.09359647, 0.00784203, -0.00451815, -0.00647186, -0.00581159, -0.00178730, 0.00989669, 0.00078957, -0.00013275, -0.00124158, -0.00027746, -0.00003056, -0.00009228, 0.00697873, 0.00924882, 0.00829196, 0.00780165, 0.00313969, -0.06325629, -0.00144296, 0.00485028, 0.00448559, 0.00436424, 0.00925268, 0.00664158, 0.00004459, -0.00143581, 0.03743755, 0.08704288, -0.00101651, 0.00111044, 0.00368671, -0.00413587, -0.00137064, 0.01793543, 0.01485051, -0.00046137, -0.00006781, 0.00004098, -0.00016843, -0.00003809, -0.00262625, 0.00106794, 0.02751141, 0.00825361, -0.12312051, -0.03933853, 0.00185854, 0.00542248, 0.00697225, 0.00543741, 0.01260582, 0.04882494, 0.05134086, -0.00158379, 0.00384585, 0.00010089, -0.00311085, 0.00469129, 0.01040448, -0.00307093, 0.02545761, 0.01632430, 0.02354329, -0.00861704, -0.00000122, 0.00001916, -0.00048447, -0.00030550, -0.00023928, 0.00068860, 0.05141637, 0.01280731, 0.00203226, -0.08958661, -0.02828669, -0.04014869, -0.00017104, -0.00098851, 0.00665153, 0.05164068, 0.00016070, -0.00635197, 0.00450494, 0.00165841, -0.00099361, 0.06907089, -0.00437633, 0.02133723, 0.03487299, 0.06985508, 0.02200777, -0.00445512, -0.00001255, -0.00005699, -0.00015394, -0.00002740, 0.00000202, -0.00026071, -0.05922656, -0.02609505, -0.02695163, -0.00325431, -0.00632192, -0.00045744, -0.00958395, 0.09712952, 0.09262270, -0.00188880, -0.01566683, -0.00323585, -0.00191135, -0.01238580, 0.02286053, 0.07705100, 0.02289619, 0.04919235, -0.00144939, 0.02298323, 0.02847826, -0.00731935, -0.00032965, 0.00023267, 0.00008745, -0.00009006, 0.00000556, -0.00002414, -0.00756380, -0.11505669, 0.00394153, 0.00794153, 0.00242535, 0.03731796, -0.01514702, -0.01600618, -0.01120512, -0.00128591, 0.06367551, 0.13425983, -0.00317244, -0.00483240, 0.04754568, -0.00318438, 0.00855651, 0.00526566, 0.00226346, 0.02238544, 0.03024340, 0.00000114, -0.00000627, 0.00009172, -0.00022305, -0.00004347, -0.00020282, -0.00018588, -0.00000765, -0.01177951, 0.00172789, 0.00945070, 0.00407735, 0.00120356, -0.00945329, -0.01274801, -0.00353898, 0.07024790, 0.00471798, -0.00316259, -0.00592359, -0.00238786, 0.01686659, 0.13543284, 0.07165173, 0.01239145, 0.00266079, -0.02325469, -0.00010510, 0.00028789, 0.00027571, -0.00015362, 0.00012216, 0.00009172, -0.00000810, -0.00012105, 0.00019466, 0.00015334, -0.00002237, -0.00012307, -0.00553885, -0.01160842, -0.01427541, -0.01118475, -0.00574763, -0.00059484, -0.01120826, -0.01385824, -0.00010354, -0.00042798, -0.00005500, -0.00002070, 0.00011241, -0.00007904, -0.00027313, -0.00004131, -0.00018093, 0.00033220, -0.00008591, 0.00012222, 0.00006182, -0.00004594, 0.00021190, -0.00005961, -0.00027354, -0.00024272, 0.00020615, 0.00016638, 0.00018298, -0.00022171, 0.00000597, 0.00000822, 0.00007494, -0.00043772, 0.00003247, -0.00003807, -0.00016522, -0.00009667, -0.00003559, -0.00021867, 0.00011550, -0.00007900, -0.00003794, 0.00002081, -0.00027152, -0.00014524, 0.00016368, -0.00028856, 0.00007843, -0.00025106, -0.00000568, 0.00001433, -0.00006190, 0.00021253, -0.00080479, -0.00000690, -0.00018511, -0.00000308, -0.00013958, -0.00015325, 0.00022543, -0.00015601, 0.00012954, -0.00351833, -0.00458952, 0.00090514, -0.00044764, -0.00001430, -0.00011808, 0.00002565, -0.00009028, 0.00000711, 0.00005096, 0.00005276, 0.00024187, 0.00019512, -0.00000014, -0.00000602, 0.00015582, 0.00004386, 0.00009395, 0.00006936, 0.00008506, 0.00007230, 0.00004020, -0.00051425, -0.00326090, -0.00373707, -0.00237989, -0.00179718, -0.00113732, -0.00515801, -0.00608232, -0.00441262, -0.00175526, -0.00083188, -0.00194689, -0.00204138, -0.00007662, -0.00021991, 0.00013013, 0.00009517, 0.00006084, 0.00023500, -0.00053096, -0.00003714, 0.00010445, 0.00002659, -0.00004970, 0.00000272, 0.00000551, -0.00039433, -0.00111657, -0.00847826, -0.00496850, -0.00287711, -0.00531712, -0.00884050, -0.00493356, -0.01074611, -0.01157935, -0.02718028, -0.03379529, -0.01079457, -0.01620121, 0.00045527, -0.00975119, -0.00014437, -0.00000553, 0.00000133, -0.00001210, 0.00008987, 0.00011316, 0.00011751, -0.00024456, -0.01804238, -0.00038792, -0.00119513, -0.00174868, -0.01544265, -0.01009247, -0.00202429, -0.00360156, -0.00383294, -0.00992090, -0.02546341, -0.01191130, -0.01225560, -0.08249555, -0.00489478, -0.00397011, -0.00374785, -0.00392173, 0.00157070, -0.00133367, -0.00029592, 0.00148848, 0.00417855, 0.00257631, -0.00003604, 0.00007833, 0.00011940, 0.00002182, -0.02520294, -0.00212205, -0.00124525, -0.00283232, -0.00235407, -0.00426169, -0.02333092, -0.00527460, -0.00429349, 0.00261461, 0.00087322, 0.00324995, -0.05960286, -0.10632481, -0.00034431, -0.01703586, -0.09591629, 0.00121819, 0.00706014, 0.00195588, 0.00833499, 0.00782469, -0.00597846, -0.01258493, 0.00000549, 0.00010472, -0.00002048, -0.02338673, -0.02810230, -0.00172264, 0.01118265, 0.00710217, 0.00971925, -0.01037291, -0.00685347, -0.00204097, 0.00539223, 0.17258081, 0.00402574, 0.00206195, 0.00436080, -0.03917130, 0.00350441, 0.00400626, 0.00378609, 0.01083140, 0.01585537, 0.01180662, 0.05698053, 0.01039951, -0.00410852, -0.00659766, 0.00648442, -0.00002703, -0.00019174, -0.00014220, -0.00551281, 0.00593732, -0.00166062, -0.00008553, -0.00337079, -0.00578280, 0.00105229, 0.04813183, 0.02015851, 0.01893793, -0.00417310, -0.02539883, -0.00569302, -0.03330512, -0.00188932, 0.03810311, 0.00506971, 0.00487605, 0.00954890, 0.01069812, 0.03405065, 0.00604673, 0.00527384, -0.00002153, 0.00412525, -0.01492025, 0.00015633, -0.00027842, -0.00076203, -0.00528281, -0.05089213, 0.00937163, -0.00154720, -0.00018607, 0.00097484, 0.01379098, 0.08329300, -0.00264847, -0.00785363, -0.00986755, -0.01111492, -0.04190732, -0.02418992, 0.07347624, 0.00280156, -0.00279047, 0.00386472, 0.00428423, 0.00122451, 0.00392674, 0.00392226, -0.00832601, 0.00000357, -0.00011541, 0.00000130, -0.00066161, -0.00413344, -0.00456743, -0.00550019, 0.00262394, 0.01040206, 0.03208407, -0.00510591, -0.01355181, -0.00525584, -0.00959203, -0.00961021, -0.07278657, -0.03016910, -0.00767501, 0.00421352, 0.01108583, 0.00376817, -0.00241870, 0.00193719, 0.00167230, 0.00384468, 0.00041752, -0.01174887, -0.00792821, 0.02093792, -0.00007615, -0.00006486, -0.00007793, -0.00754653, 0.00006544, 0.00328939, 0.01292959, 0.01221898, 0.02980911, -0.00195314, -0.01012455, -0.00132860, -0.05852769, -0.04733824, -0.08527334, -0.10633367, -0.00158675, 0.00431360, 0.01027834, -0.00039788, -0.00305305, -0.00082117, 0.00341383, 0.00899912, 0.02427211, 0.00008327, -0.00005299, 0.00092669, -0.00003128, 0.00000011, -0.00161209, -0.00186980, 0.00401414, 0.00235646, 0.00419792, 0.00224832, 0.09840582, 0.00370761, 0.11283591, 0.05790857, 0.01178838, 0.00191573, 0.00080918, 0.00312987, 0.00420567, 0.00463022, 0.00363528, 0.00064723, 0.00099174, 0.05152984, 0.01210234, 0.01560658, 0.02185924, 0.00682205, 0.01089491, -0.01342982, 0.00002432, -0.00006306, -0.00014444, 0.00005853, 0.00390434, 0.00361379, -0.00192603, -0.00313697, 0.00040945, 0.00949912, 0.00795941, 0.01862787, 0.01238095, -0.07723908, -0.10096688, 0.00381010, 0.02699302, 0.01010081, 0.00027199, 0.00130221, 0.00455812, 0.16352166, 0.00863688, 0.01218774, 0.00229605, -0.07911298, 0.01215777, 0.00426344, -0.00023787, -0.00006638, 0.00022887, -0.04137919, -0.00392742, 0.00036129, 0.00263086, 0.00161174, 0.00015282, 0.01200745, 0.05701201, 0.01356815, 0.00951337, -0.00139910, -0.05416735, 0.00592763, 0.02845290, 0.00431688, 0.00377174, 0.08906977, 0.01825578, 0.28644937, 0.01932731, 0.00053889, -0.00201877, 0.00318324, 0.01378047, 0.01442216, -0.00001162, 0.00000677, -0.00002423, 0.00067569, -0.00115946, -0.00280467, -0.00169729, -0.00034545, -0.00367658, -0.00009798, 0.00380564, 0.00699815, 0.00183096, -0.00349666, -0.00054262, 0.08876472, 0.09123167, 0.00103867, 0.00087992, 0.17023098, 0.00335938, 0.00028703, -0.00231936, -0.00505164, -0.00738243, -0.00326646, 0.00116538, -0.00003030, -0.00001989, 0.00001931, -0.00749868, -0.00050772, 0.00441523, -0.01139935, -0.00474443, -0.00291993, -0.00405003, -0.00411128, 0.00009891, -0.00458909, -0.00038796, 0.00298858, 0.01422167, 0.17707942, 0.00346959, 0.00077014, -0.00410264, -0.00372950, 0.00094729, 0.00126438, -0.00329410, -0.01517707, -0.01344616, -0.00264576, -0.00001045, 0.00004382, 0.00148916, -0.00001296, -0.00016341, -0.00097351, 0.00610203, -0.00034319, -0.00539290, -0.00421975, -0.00418514, -0.00382241, -0.02109943, -0.00322082, 0.00116018, 0.00429363, 0.02110439, 0.00156859, 0.07826359, 0.10234091, -0.00810713, -0.00829409, -0.00748647, -0.01065691, 0.00070152, -0.00705586, -0.00372825, -0.00459037, -0.00001395, 0.00010769, 0.00003105, 0.00000310, -0.00032969, -0.00149492, 0.00512460, -0.00288951, -0.00464411, -0.02180333, -0.06836803, -0.22385411, -0.09490070, 0.00065117, 0.00613862, 0.04744559, 0.04595967, 0.01749035, 0.00619930, 0.00406968, 0.00024382, -0.05708525, -0.02870271, -0.08175149, 0.00123631, -0.04582501, -0.08857805, -0.00150655, 0.00009381, -0.00001333, 0.02445652, -0.00009085, -0.00057146, -0.00207507, -0.04860061, -0.06961277, -0.00302488, -0.00448598, -0.13118562, -0.12254339, 0.00623735, 0.01013890, 0.00523830, 0.09684210, 0.02496542, 0.00906096, 0.00190802, 0.00579696, 0.00153259, -0.08913092, -0.11684130, -0.07087274, 0.00253815, -0.14165251, -0.00352618, -0.00092068, 0.00008106, -0.00358023, 0.00011131, 0.00009948, -0.00066355, -0.00284601, -0.00562692, -0.10236581, -0.00066503, -0.06333710, -0.04404907, -0.00953827, 0.04519793, 0.03639337, 0.00390076, 0.02014194, 0.00616594, -0.00171472, -0.00280693, 0.00180490, -0.00216876, -0.00624493, -0.05823747, -0.00386268, 0.00408597, -0.00661206, -0.00214235, -0.00400005, -0.00014715, -0.00150949, -0.00004275, 0.00009856, -0.00082139, -0.00441397, -0.14022888, -0.05838697, -0.06486993, -0.04943759, 0.00635848, 0.01042592, 0.09758573, 0.01667470, -0.00051631, -0.00300120, 0.00070032, -0.02518394, -0.01943302, -0.17266734, -0.10721721, -0.00785195, -0.01488414, -0.01668233, -0.00265986, 0.00146926, -0.01029576, -0.01869274, -0.00004409, 0.00013467, 0.00037713, 0.00004907, -0.01688280, -0.00199821, -0.00144528, 0.01093937, -0.10790364, -0.04686635, 0.01007621, 0.01019703, 0.00349466, -0.00477964, -0.00085484, -0.00398532, -0.00598889, -0.00744757, -0.00930522, -0.06396206, -0.13468158, -0.01061811, -0.01259532, -0.01519714, -0.03672108, 0.00168811, 0.01189513, -0.01792105, -0.02392285, -0.00002626, -0.00027163, -0.00006265, -0.00008117, 0.00237831, 0.00586486, 0.00942460, 0.00981465, -0.03357977, 0.00358016, 0.00335878, 0.00010547, -0.00591532, 0.00168642, -0.00086804, -0.00054057, -0.00382956, -0.00688837, -0.06826753, -0.02802542, -0.00774735, -0.00256892, -0.01411144, -0.09353165, -0.00560688, 0.01063281, 0.00387221, -0.00001854, 0.00014897, 0.00034088, 0.00029367, -0.02538824, 0.00219739, -0.00230637, 0.00444756, 0.00778280, 0.00260797, 0.01102898, 0.00391630, 0.00262232, 0.01148957, 0.00359979, 0.00408471, 0.00601571, -0.00224617, -0.00623371, -0.00419939, -0.11946027, -0.00131229, 0.00529450, -0.01345457, -0.01675424, -0.00990928, -0.00363681, 0.00886809, -0.00000126, -0.00001613, -0.00004665, 0.00013452, 0.00000100, -0.00239151, -0.01207237, -0.00410820, -0.00709215, -0.00811068, -0.00294047, -0.04887873, -0.00722454, 0.09147564, -0.00023604, 0.00956355, 0.00539534, 0.04752553, 0.00540383, -0.00267122, -0.03921979, -0.00535501, 0.05634218, -0.00618823, -0.07211024, -0.00855029, -0.00013812, 0.00016997, -0.00001068, 0.00005201, 0.00017878, -0.00032244, 0.00000080, 0.01069729, -0.00748621, -0.00708224, -0.00981441, -0.00585016, -0.01234023, -0.00682590, 0.06265585, -0.00145102, -0.00679157, -0.00008823, 0.03585697, -0.00515499, 0.00891207, 0.01163619, 0.00294771, -0.00067866, -0.00045734, -0.00436752, -0.00324594, -0.00013881, -0.00235436, 0.00009845, -0.00024770, 0.00015422, 0.00007472, 0.00008580, 0.00003887, 0.00013991, -0.00004190, 0.00403546, -0.00006424, 0.00717195, 0.00435329, 0.00154438, -0.00759332, -0.00749290, 0.00091081, -0.00372972, -0.00858511, -0.00871476, 0.00356871, 0.03761376, -0.00081115, -0.00042658, -0.00780969, -0.00008639, 0.02496973, 0.02193731, -0.00007727, -0.00034552, -0.00003348, -0.00005745, -0.00021669, -0.00013263, -0.00021110, 0.00011789, 0.00024065, 0.00001513, -0.00002968, -0.00011604, -0.00227441, -0.00231256, -0.00168143, -0.00013113, -0.00249986, -0.00019001, 0.01476270, 0.01630711, -0.00084603, 0.00020339, -0.00007458, -0.00006460, -0.00033279, 0.00631028, 0.00194191, -0.00003214, -0.00010622, -0.00004212, -0.00023502, 0.00006064, -0.00017558, 0.00009994, 0.00006954, 0.00000824, -0.00005851, 0.00020546, -0.00001078, -0.00008844, -0.00000207, 0.00000536, -0.00007403, 0.00006510, -0.00031977, 0.00005683, -0.00005291, 0.00023097, -0.00003091, -0.00034022, -0.00002838, -0.00019191, -0.00004163, 0.00019689, 0.00003203, -0.00019132, 0.00013847, 0.00020883, -0.00021007, -0.00016166, 0.00012995, 0.00010282, 0.00017214, -0.00015305, 0.00014895, -0.00003298, -0.00007460, 0.00012502, 0.00016649, -0.00000417, -0.00003974, -0.00006109, 0.00001577, -0.00011398, -0.00016796, 0.00063604, -0.00029930, 0.00018868, 0.00037729, -0.00010416, -0.00008531, 0.00002653, 0.00014029, -0.00001571, 0.00003296, 0.00011441, 0.00018224, 0.00001654, -0.00009985, -0.00011298, 0.00014040, -0.00007516, 0.00002975, 0.00008751, 0.00014765, 0.00007096, 0.00046530, 0.00000187, 0.00223061, 0.00357364, 0.00340447, 0.00313067, 0.00336000, 0.00348705, 0.00276579, 0.00282179, 0.00123850, 0.00362976, 0.00367342, 0.00101944, 0.00050104, -0.00001099, 0.00004125, -0.00010048, 0.00018427, 0.00002703, 0.00001015, 0.00015489, -0.00019642, 0.00015683, -0.00004146, 0.00011992, 0.00010284, 0.00015341, 0.00115092, 0.00014316, 0.00132997, 0.00331946, 0.01266518, 0.00746837, 0.00112169, 0.00016768, -0.00083067, 0.00514629, 0.03118451, 0.00164376, -0.00170878, 0.00181310, 0.01221490, 0.00156173, 0.00000489, -0.00001736, -0.00004480, -0.00017478, -0.00033395, 0.00007415, 0.00024409, -0.00001949, 0.00005862, -0.00000355, 0.00069393, 0.01360875, 0.00954966, 0.00444314, -0.00152845, 0.02157220, 0.03510128, -0.00032954, 0.02709113, 0.01361693, 0.04626519, 0.00507616, 0.00931879, 0.00471452, 0.00004027, 0.00682674, 0.01892601, 0.00450251, 0.00026872, 0.01508475, 0.00760287, 0.00000365, 0.00026204, -0.00002226, -0.00002659, -0.01235965, 0.00011899, 0.00104248, -0.00236732, 0.00626973, 0.01162846, 0.00936553, 0.00161710, -0.00548668, -0.00274563, 0.00363358, 0.01173555, -0.00079197, -0.00383503, 0.00894656, -0.00264891, 0.01519094, 0.01075681, 0.00133268, -0.00653439, -0.00523682, -0.00203850, -0.00019780, 0.00001988, -0.00000863, -0.00017193, -0.00006982, 0.02656771, -0.00373164, -0.00569021, 0.00098703, 0.00206059, -0.06049364, 0.00663998, 0.00417283, 0.21956785, 0.00194950, 0.00616998, 0.01035903, 0.00395532, -0.00113617, -0.00853473, -0.01124592, -0.00612435, 0.00031946, 0.05504621, 0.01396697, 0.00431328, -0.00255083, -0.00592790, -0.00091191, 0.00015773, -0.00003059, 0.00011178, 0.00001059, -0.01592335, -0.02400497, -0.01138363, -0.00542054, -0.00748508, 0.00582542, 0.00929408, 0.00559653, 0.00096394, -0.00175805, -0.00478633, -0.00315682, -0.00175430, 0.00460616, 0.00171431, 0.00096321, 0.00821656, 0.00532652, 0.05121522, 0.01036835, 0.00755208, 0.00547323, 0.00011758, -0.00123677, -0.00085928, 0.00016111, -0.00010833, -0.00000492, -0.02543720, -0.01085755, 0.00489319, -0.00355113, 0.00064077, 0.00967915, 0.00920228, 0.00398080, -0.00167766, -0.00583215, -0.00099082, 0.00566219, 0.00330516, 0.01224975, 0.21879031, 0.08881428, 0.01218154, 0.00427964, 0.00383156, 0.00125810, 0.00067537, 0.00120139, -0.00124348, -0.00630578, -0.00673928, -0.00000778, 0.00011622, -0.00001249, 0.01757780, 0.02669681, 0.01245442, -0.00135364, 0.00681003, 0.00984109, 0.00485822, 0.01894739, 0.00177570, -0.00675785, 0.00060581, 0.01187642, 0.00754600, 0.03297384, 0.00846360, 0.01667570, 0.08129270, 0.00510113, 0.02809284, -0.00348399, -0.00822899, -0.00891455, -0.00787283, -0.01161341, -0.01387615, 0.02632626, 0.00017384, 0.00000059, 0.00015810, 0.03957598, 0.00846584, -0.00561344, 0.00279933, -0.00025125, 0.00191049, 0.00355323, 0.00204516, -0.09950861, -0.04202051, 0.00316972, 0.00468758, 0.00139783, -0.00451993, 0.00522098, 0.00286605, 0.00285913, 0.01085421, -0.00564600, -0.01123450, -0.00870199, -0.02544037, -0.00680863, -0.00141592, 0.00001359, 0.00010360, 0.00002064, 0.00019809, 0.00990756, 0.00802794, 0.00439158, -0.02591525, -0.00497770, 0.00342242, -0.00205713, -0.00571403, -0.01252761, -0.01431971, -0.00505972, -0.13546269, -0.10489839, -0.16532239, -0.00470273, -0.06147883, -0.00117626, -0.00997014, -0.00935213, 0.00272707, -0.00179587, -0.00547578, -0.00052837, 0.00003727, -0.00000117, -0.00016605, 0.00002724, 0.00003551, -0.00683820, 0.00375065, 0.00304564, -0.00015176, -0.00581779, -0.03721784, -0.01268538, -0.00448750, -0.00770971, -0.00103980, -0.00120795, -0.00309484, -0.04487775, -0.07598277, -0.09704006, 0.00120482, -0.00670452, -0.00464938, -0.00514636, 0.00128309, 0.00027139, 0.00273912, 0.00098024, -0.00000730, 0.00000472, 0.00004196, -0.00003418, 0.00002211, -0.00838602, 0.00109165, -0.00018694, 0.00106317, -0.00407713, -0.00566410, -0.00085724, 0.02388136, 0.01259896, 0.00781887, -0.00048617, -0.00122335, -0.00735646, -0.03261822, -0.00921271, -0.00234775, -0.07191833, 0.00265346, -0.14395170, -0.00244014, -0.00137183, 0.00563292, 0.00125529, -0.00042208, 0.00000355, 0.00001427, 0.00000517, 0.00000861, -0.00886671, -0.00213100, -0.00082463, -0.00013919, -0.00008201, 0.00578815, 0.05787984, 0.05227259, 0.00241108, 0.00503076, 0.00826180, 0.00698561, 0.00470733, -0.01312799, -0.00527525, 0.00451175, -0.09356997, 0.00474220, 0.00062423, -0.02496408, 0.00259881, 0.00339558, -0.02687313, 0.00126997, 0.00003917, -0.00001965, 0.00001110, 0.00001079, -0.00103798, -0.00027099, -0.00061684, 0.00096322, 0.00653472, 0.04294936, 0.02747711, 0.14923316, 0.12330784, 0.08579102, 0.00716930, 0.08560012, 0.02451795, -0.00444152, -0.00347442, -0.00043161, -0.10748608, 0.00293135, -0.00146580, 0.00109882, 0.00910274, -0.00257889, -0.01032112, -0.00000887, -0.00004152, 0.00000715, -0.00019023, 0.00001446, -0.00069054, -0.00822857, -0.00107799, 0.01185183, 0.01393295, 0.01815950, 0.10779727, 0.30681688, 0.16201103, 0.25429502, 0.29547775, 0.08545277, 0.00325497, 0.00270652, 0.00056106, 0.00738668, 0.00056448, -0.14792512, 0.00231874, -0.00559974, 0.00467822, 0.00088349, -0.01882860, 0.00021761, 0.00002252, -0.00012964, 0.00011977, 0.00000958, 0.00045221, -0.02693775, 0.00031298, -0.11067841, 0.01232376, 0.01368533, 0.01620666, 0.01636409, 0.01039954, 0.11618785, 0.05004988, -0.00380134, 0.01160675, 0.00676780, 0.00286061, 0.00834736, 0.00997178, 0.01051584, 0.00890118, 0.00129203, 0.00053186, 0.00271635, -0.01830384, 0.00014448, 0.00005668, 0.00001796, 0.00014530, 0.00004811, 0.00024301, -0.01105660, -0.02776904, -0.17512941, -0.12060033, -0.11735918, -0.13867648, -0.00476971, 0.00153205, -0.00105489, -0.00728397, -0.00122090, 0.00930331, 0.05167166, 0.05511601, 0.01026068, 0.01204471, 0.01601508, 0.00964721, 0.00076582, -0.00301052, -0.02927367, 0.00073427, -0.00008313, 0.00001852, 0.00025246, -0.00028557, 0.00009723, -0.00848543, 0.00063045, -0.00711241, -0.11419841, -0.05361954, -0.25252163, -0.31610903, -0.31277132, -0.22890520, -0.07052471, -0.16518930, 0.00091006, 0.03971147, 0.09219076, 0.05554404, 0.01711568, 0.01353773, 0.02758244, 0.01099627, 0.00450575, -0.04533149, -0.00429377, 0.00084496, -0.00002309, -0.00000492, -0.00014190, -0.00001630, 0.00116955, -0.00337824, 0.01014510, -0.02950222, -0.01612174, -0.00095307, -0.00134546, -0.17444782, -0.23261030, -0.31243843, -0.29221487, -0.00650800, 0.00696132, 0.04598798, 0.01426485, 0.13362601, 0.08770590, 0.01988177, 0.01999148, 0.01310861, 0.00897627, -0.04107163, 0.00174051, 0.00012234, 0.00023015, 0.00022289, 0.00009666, -0.00001232, 0.00110916, 0.00433316, 0.09199429, -0.00906200, -0.00729999, 0.00706834, -0.00028371, -0.00109211, -0.00222387, -0.00105052, -0.00033213, 0.00325779, 0.07574084, 0.01819482, 0.02292604, 0.12273666, 0.01706445, 0.00766598, 0.02134505, 0.02220624, 0.00742136, -0.01604344, 0.00180005, 0.00008756, -0.00002838, -0.00015391, 0.00003208, 0.00000063, -0.00455362, -0.00120933, 0.00989460, 0.00683427, 0.10443120, 0.04621198, 0.00078470, 0.00301979, 0.00632664, 0.04338834, 0.00848728, 0.00137946, 0.00209422, 0.02967557, 0.00992826, 0.00687103, -0.07455190, -0.02429839, 0.00710198, 0.00348154, -0.03700874, 0.00059661, 0.00118091, 0.00006990, 0.00004924, -0.00020554, -0.00019609, 0.00005648, 0.00000074, 0.00014544, 0.02075586, 0.00617603, 0.05771403, 0.15401740, 0.00580192, 0.00523383, 0.12822695, 0.10996217, 0.03072607, 0.09523015, 0.00280638, 0.07524958, 0.00417378, -0.03097817, -0.10548234, -0.08224762, -0.01878589, -0.00114923, 0.00232600, 0.00003780, 0.00064719, 0.00038123, 0.00000171, -0.00022643, 0.00019819, 0.00017305, 0.00000910, 0.02185995, 0.01600986, 0.00703046, 0.03775929, 0.03435726, 0.00412672, 0.05767204, 0.17714371, 0.00482722, 0.00499691, 0.09297687, 0.10020649, 0.00086861, -0.00012482, -0.01155607, -0.01718082, -0.02690003, -0.00007180, 0.00154847, 0.00697446, 0.00000562, 0.00023857, 0.00022536, 0.00003131, 0.00013428, 0.00006172, -0.00023840, 0.00000870, -0.01433640, 0.00469669, 0.06185098, 0.00201643, 0.04640014, 0.09221699, 0.04305410, 0.07493595, 0.03886835, 0.14412536, 0.02417154, -0.01701052, -0.00639670, -0.00142503, -0.01309135, -0.01539800, 0.01391569, 0.00034582, -0.00008005, 0.00258829, -0.00077356, -0.00000323, -0.00011679, 0.00004568, -0.00001072, -0.00012557, 0.00018577, -0.00003646, 0.00011734, -0.00451561, -0.00334750, 0.00265277, -0.00125673, -0.00457907, -0.01134168, 0.01018781, 0.01210895, -0.00081502, 0.00296873, 0.00752989, 0.00511734, 0.00176922, 0.00034891, 0.00048061, 0.00063701, 0.00403380, 0.02218948, 0.00016701, -0.00002761, -0.00008584, -0.00008701, 0.00006754, -0.00042235, -0.00003771, -0.00001194, -0.00012414, -0.00019747, -0.01279504, -0.00501967, -0.00018026, 0.00004666, 0.01218756, 0.02869073, 0.00192330, -0.00011322, 0.01051131, 0.00004230, -0.00619495, -0.01030829, -0.00005028, 0.00033310, 0.00000208, 0.00035556, 0.00003038, -0.00005394, -0.00000864, -0.00015968, -0.00010515, 0.00010426, -0.00000357, 0.00000720, 0.00014393, 0.00001139, -0.00002466, -0.00008751, 0.00006095, 0.00002460, -0.00007007, -0.00022748, -0.00009328, 0.00011154, 0.00003285, 0.00002699, -0.00021506, -0.00011529, -0.00003325, 0.00000203, -0.00012823, 0.00001211, -0.00001883, -0.00017464, 0.00000234, -0.00008783, 0.00002831, -0.00021273, -0.00025964, 0.00000189, 0.00016334, 0.00007986, 0.00003341, -0.00015672, -0.00006386, 0.00041412, -0.00009036, 0.01864608, 0.00468697, 0.00136775, 0.00425447, 0.00174542, -0.00006817, -0.00012286, -0.00982032, -0.00454800, 0.00001249, -0.00003172, -0.00006565, -0.00008210, -0.00008674, -0.00005659, 0.00008510, 0.00002572, -0.00021373, 0.00020102, -0.00010655, 0.00000376, 0.00002777, 0.00019208, 0.00022413, -0.00004260, -0.00002014, -0.00000604, 0.00011524, 0.00245460, 0.00193371, 0.00007422, 0.00010049, 0.00083376, 0.00353309, 0.00437715, -0.00094697, -0.00240269, -0.00543429, 0.00067117, 0.00261551, 0.00371274, -0.00371434, -0.00864801, -0.01614662, -0.01346388, -0.00005180, 0.00173927, 0.00015035, 0.00016535, -0.00017580, 0.00000274, 0.00004399, -0.00000786, 0.00003946, -0.00000572, 0.00000174, 0.02319568, 0.00200640, 0.01688782, 0.00028516, 0.00082421, 0.05351777, 0.00485792, 0.13227250, 0.11754317, 0.05918453, 0.07419463, 0.01513060, 0.01704573, 0.00067974, -0.07140484, -0.00257197, 0.00115957, 0.00234080, -0.00888163, -0.00928316, -0.00827689, -0.02162782, 0.00014067, -0.00007352, 0.00003941, -0.00004972, -0.02189154, 0.00878162, 0.01067552, 0.04010549, 0.01470533, 0.04030533, 0.23825477, 0.10078124, 0.25269637, 0.29944295, 0.16385770, 0.13494770, 0.10312337, 0.04817250, 0.00491082, 0.02710505, 0.06790037, 0.01686914, -0.00045097, -0.02960397, -0.00184152, 0.04887919, -0.00500275, 0.00212884, -0.00001997, 0.00017534, -0.00001888, -0.00014623, 