//Numpy array shape [50, 10]
//Min -1.321848869324
//Max 0.957076251507
//Number of zeros 0

#ifndef W5_H_
#define W5_H_

#ifndef __SYNTHESIS__
output_weight_t w5[500];
#else
output_weight_t w5[500] = {0.00608704, 0.11128869, 0.49354124, -0.26437742, 0.50938684, 0.27148971, 0.09932508, -0.67146206, -0.38870531, -0.12555680, -0.47183287, -0.59837842, -0.00100913, -0.10941995, 0.22094318, 0.54619008, -0.11293241, -0.06754290, -0.75897694, -0.28360257, 0.38567421, 0.66607600, -0.03037225, 0.00556136, -0.70637214, -0.42605641, -0.00772428, -0.77988994, -0.32231760, 0.00426286, 0.22419618, -0.72133851, -0.16919193, -0.51597840, 0.00033569, 0.00082238, -0.15105356, 0.00514952, 0.00035381, -0.11396986, 0.44343632, 0.11371777, -0.03516199, -0.29919565, 0.35980558, 0.03627683, -0.48254085, 0.21719232, -0.29252395, -0.10944512, -0.20035185, 0.00004841, 0.33682561, 0.22257042, 0.43680096, -0.36921537, -0.00110360, -0.25051463, -0.59899151, -0.33805776, -0.09443217, -0.32691607, -0.56933838, 0.77623081, -0.51162654, -0.67820668, 0.14526987, -0.14189517, -0.53687602, -0.01130538, 0.00041404, -0.51910150, 0.95707625, -0.88174379, -0.17042114, 0.43017539, 0.51459849, -0.07597422, 0.09352378, 0.40580496, 0.22085316, -0.23978065, -0.15589114, 0.00092968, 0.40140450, -0.48336548, -0.27154100, -0.00505194, 0.01289419, -0.94524091, -0.02158726, -0.86801046, 0.00486118, -0.00679945, -0.56562376, -0.16753496, 0.29435948, -0.48281753, 0.00843122, 0.03898711, 0.48799935, -0.28757766, -0.64551628, -0.46833038, 0.36712876, 0.39316794, 0.19795738, 0.10813848, -0.20115378, -0.60632747, 0.02342856, 0.20046403, -0.15384164, 0.00054078, -0.26183200, 0.34577420, -0.55973715, -0.00131630, -0.04558553, -0.24507318, 0.63925803, 0.00473115, -0.34934080, -0.17342053, 0.39365035, 0.08667016, 0.44597238, 0.62057298, 0.44408658, 0.24671431, -0.89551753, -0.19866848, 0.52514917, -0.14236045, -0.19212656, 0.16598138, -0.27856269, -0.02661431, -0.24093653, 0.29708999, -0.62443894, -0.09641029, 0.26640153, -0.32103637, 0.05557300, -0.11550105, 0.41094831, 0.47709832, -0.78615117, -0.90866464, 0.28293607, 0.14910072, -0.27677143, 0.01039558, -0.00201626, 0.03886247, -0.61369127, -0.61539161, -0.51227814, 0.78024817, 0.55196327, -0.00228178, -0.29196742, 0.02064202, 0.25578216, -0.15517038, 0.02038559, 0.46309590, -0.06351548, 0.28275600, -0.17174204, 0.15133780, -0.01911399, 0.49885365, 0.48977405, 0.05020680, -0.00198482, 0.01204536, 0.54904282, 0.11718960, -0.01334212, 0.39400682, 0.48828968, -0.06888411, -0.61729634, -0.33566692, -0.20536499, -0.00098607, -0.53481275, -0.15343656, -0.87011683, 0.05905537, -0.78584754, 0.04399841, 0.56197858, 0.10000660, -0.60252851, -0.49603397, -0.35467598, 0.43655378, 0.00018257, -0.88306898, 0.56273413, 0.43297994, -0.00247378, 0.13187747, 0.37495688, -0.77806556, 0.13178477, -0.29152215, 0.00409053, -0.04871991, 0.00871891, 0.65964180, 0.08391429, -0.88731986, -0.00324694, -0.34026432, 0.37632072, 0.13977882, -0.51255405, -0.81774557, -0.50489485, -0.48913038, -0.13259800, 0.63351291, -0.49009028, -0.34276265, -0.66925484, -0.10983307, -0.66304612, 0.00536827, -0.92462283, 0.17563577, 0.32591531, -0.69156778, -0.86972195, 0.48542774, 0.41716900, 0.45877782, 0.24101044, -0.00453343, 0.42783973, 0.29099965, -0.39906931, -0.20076632, -0.44399261, 0.10471261, 0.07615482, 0.24159354, -0.25398487, 0.38931924, 0.21201178, 0.41336599, -0.01804483, -1.06561434, -0.36810356, 0.56841755, -0.66004729, 0.60570860, 0.46390203, 0.01652819, 0.38539898, -0.21361277, -0.09169652, -0.33582783, -0.08471778, 0.45184064, -0.00445614, -1.15413868, -0.69363844, -0.15431690, 0.39337784, 0.02772146, -0.07167952, -0.69053978, 0.05837810, -0.22527283, -0.29618809, -1.02734160, 0.25114259, 0.24948280, -0.09845513, 0.07279029, 0.05835810, 0.42971474, 0.74145526, -0.26845574, -0.60988724, -0.00179515, -0.00056143, 0.04460917, -0.09183388, 0.12109637, 0.35935280, -0.57666767, -0.03194920, 0.23788659, 0.39103031, 0.01887418, -0.78314507, -0.18806468, 0.39185145, -0.08067417, 0.15864722, 0.00146313, -0.03034021, 0.25898987, 0.03135996, -0.24365997, -1.17000306, 0.32438189, -0.00067805, -0.03470059, 0.60772449, 0.19786428, 0.29701361, -0.04436904, -0.20667085, -0.81301069, -0.09230128, -0.52220708, -0.25098246, -0.78931737, -0.00944583, -0.52128452, -0.27232665, -0.34356353, 0.14356710, 0.20260650, -0.01632133, -0.15803207, -0.89996970, 0.17284183, -0.00746174, 0.52982062, 0.58935422, -0.26929703, 0.21588276, 0.48487210, -0.17084198, 0.00376996, -0.20574166, -0.52146977, 0.32245487, -0.33068746, 0.53971654, -0.46733543, -0.54355323, -0.63196284, 0.44226539, 0.56647813, -0.10108885, -0.78550327, 0.15549293, -0.09357291, 0.32509217, 0.29114377, 0.17258820, -0.20660703, -0.17657417, -0.84204280, -0.06991836, -0.28146902, -0.03517691, -0.44182119, -0.31949234, -0.90789485, 0.43515837, 0.20679183, -0.34805134, 0.15382519, -0.25010189, 0.15095903, -0.32030907, -0.06206695, 0.07528593, 0.16115965, 0.46914577, -0.06505486, 0.10843496, -0.16413152, 0.47892705, 0.32755738, 0.47451830, -0.37163267, 0.00318270, -0.44397530, 0.27139100, -0.19175705, 0.11549442, -0.76876777, 0.42506564, 0.37996054, -0.21013227, 0.17364891, -0.18547998, -0.34300146, -0.29134783, -0.42324516, -0.39323986, -0.47341150, -0.03429312, 0.13717051, -1.28042829, -0.01288165, 0.40573624, 0.24730872, 0.36366916, -0.29516098, 0.00691473, -0.08803930, 0.58327121, -0.39313954, 0.02031528, 0.50457501, 0.47176224, -0.41517526, -0.80535418, 0.31819800, 0.34313855, -0.04851734, -0.27193236, -0.13535072, 0.54219586, 0.05336571, -0.36814943, 0.11618233, -0.48790765, -0.05922453, 0.18119782, 0.61103785, -0.07637691, -0.75235981, -0.57215941, 0.00142435, 0.01913201, -0.12476861, 0.02980790, -0.18492772, 0.04339350, 0.47821030, -0.23421700, -0.89462352, -0.22853285, 0.48231062, 0.24188827, -0.29931885, 0.33474985, -0.21777534, -0.00713125, -0.20196931, -0.61365122, -0.34052017, -0.44960248, 0.31719017, -0.71290851, -0.28182331, 0.16204302, -0.04493454, 0.34047696, 0.48645234, -0.37968093, -0.87546504, -1.04410124, 0.06020246, 0.00507841, 0.37072125, 0.33112347, 0.38229641, 0.33781856, 0.25177512, -0.05509841, 0.26613232, 0.02725951, -0.00460328, -0.81638420, -1.00644517, -1.32184887, -0.02144491, 0.20500952, -0.29258734, -0.06490830, 0.16399457, -0.06748973, 0.53182864, -0.06791195, 0.24504654, 0.14964755, -0.57921654, 0.35298494, -0.03767558, 0.03839862, 0.37638518, -0.71326435, 0.30834496, -0.75115860, 0.22425157, 0.11904445, 0.58549035};
#endif

#endif
